6.826382875442504883e-02 -6.083614379167556763e-02 4.622666537761688232e-02 2.074828930199146271e-02 -8.007152378559112549e-02 -1.788387633860111237e-02 -1.285555213689804077e-02 -4.870187118649482727e-02 -7.798444479703903198e-02 -2.807039767503738403e-02 -2.332098595798015594e-02 -8.654937893152236938e-02 5.761348456144332886e-02 5.372301209717988968e-03 -2.791834436357021332e-02 -6.628059595823287964e-02 -5.912309885025024414e-02 -8.223304152488708496e-02 7.500757928937673569e-03 -7.088146358728408813e-02 -1.353215659037232399e-03 -1.873481459915637970e-02 4.076278954744338989e-02 -2.694296650588512421e-02 -9.167669713497161865e-02 1.606580987572669983e-02 4.104475677013397217e-02 -4.425998404622077942e-02 -8.121949434280395508e-02 -7.143685966730117798e-02 1.885687932372093201e-02 1.654225960373878479e-02 -3.115234337747097015e-02 1.721268706023693085e-02 -1.478758361190557480e-02 -1.278264075517654419e-02 3.363041952252388000e-02 3.226522728800773621e-02 8.836793713271617889e-03 -1.970788836479187012e-02 2.494778111577033997e-02 7.455433905124664307e-02 6.133274734020233154e-02 6.797356158494949341e-02 2.365859225392341614e-02 1.540170237421989441e-02 -4.509945213794708252e-02 2.842315658926963806e-02 3.876277059316635132e-02 -4.170550778508186340e-02 7.496362179517745972e-02 -2.431710436940193176e-02 -7.800478488206863403e-02 3.060959465801715851e-02 2.586896717548370361e-02 4.448411613702774048e-02 1.871060207486152649e-02 -5.313301458954811096e-02 -3.232003375887870789e-02 -7.262306660413742065e-02 2.974405325949192047e-02 3.038685768842697144e-02 1.984216459095478058e-02 5.740311741828918457e-02 8.649694919586181641e-02 -6.190532818436622620e-02 -2.719439379870891571e-02 -1.126290485262870789e-02 3.297231718897819519e-02 1.196312531828880310e-02 -6.382467690855264664e-03 2.316815778613090515e-02 2.629889920353889465e-02 -2.832685038447380066e-02 5.847576633095741272e-02 1.039205305278301239e-02 -6.932542473077774048e-02 -5.339121911674737930e-03 7.102043181657791138e-02 3.458219394087791443e-02 3.605372458696365356e-02 9.210810065269470215e-03 -8.214030414819717407e-02 1.861465163528919220e-02 -1.826087757945060730e-02 1.550369802862405777e-02 -2.106296457350254059e-02 -5.918923765420913696e-02 3.490023314952850342e-02 -2.441440150141716003e-02 9.524285048246383667e-02 3.191683813929557800e-02 1.189609616994857788e-02 -5.029869452118873596e-02 -4.563662409782409668e-02 2.818996459245681763e-02 -7.136422395706176758e-02 -9.049059450626373291e-02 -5.183719843626022339e-02 8.681327104568481445e-02 -4.794985428452491760e-02 -5.742697045207023621e-02 2.568355575203895569e-02 5.623431131243705750e-02 -5.890880525112152100e-02 -4.100653529167175293e-02 4.411330446600914001e-02 7.104999572038650513e-02 3.909759595990180969e-02 5.525128543376922607e-02 2.995032258331775665e-02 -5.817417800426483154e-02 -2.812535688281059265e-02 3.222208470106124878e-02 -8.123873174190521240e-02 2.129547856748104095e-02 -2.620481140911579132e-02 -4.560928791761398315e-02 2.223441191017627716e-02 -6.006094813346862793e-02 5.880275741219520569e-02 -5.709557235240936279e-02 -7.066659629344940186e-02 -3.229371830821037292e-02 -5.512652546167373657e-02 -1.843533478677272797e-02 -7.424576580524444580e-02 -6.133826449513435364e-02
-3.424992784857749939e-02 7.765510678291320801e-02 -3.322314843535423279e-02 -8.237520605325698853e-02 -2.677122876048088074e-02 -5.577137693762779236e-02 3.628958016633987427e-02 3.552783979102969170e-03 6.682487577199935913e-02 -5.872095748782157898e-02 -7.751595973968505859e-02 -3.485884889960289001e-02 7.735763210803270340e-04 6.555057596415281296e-03 -5.608267709612846375e-02 8.708566427230834961e-02 1.366590894758701324e-02 8.742491900920867920e-02 8.262175321578979492e-02 -2.112038247287273407e-02 -7.941844314336776733e-02 -5.197204276919364929e-02 2.182152308523654938e-02 4.302156716585159302e-02 -6.689026206731796265e-02 3.460227325558662415e-02 -1.383705623447895050e-02 -2.950292080640792847e-02 7.214886695146560669e-02 4.763571918010711670e-02 2.255562692880630493e-02 -3.852457553148269653e-02 -1.017984282225370407e-02 5.288499593734741211e-02 7.845526188611984253e-02 -7.767365872859954834e-02 2.464251220226287842e-02 6.248751282691955566e-02 8.383288234472274780e-02 6.504391878843307495e-02 3.908266313374042511e-03 7.446181774139404297e-02 9.652852267026901245e-02 7.074216753244400024e-02 -6.963377445936203003e-02 -3.733633458614349365e-02 -4.778246209025382996e-02 2.504201233386993408e-02 -8.874047547578811646e-02 3.899586200714111328e-02 -7.392001897096633911e-02 -6.897942721843719482e-02 -6.383614987134933472e-02 -5.800740048289299011e-02 -7.879719138145446777e-02 -3.979355469346046448e-02 3.298716619610786438e-02 6.608533207327127457e-03 -1.104660425335168839e-02 1.125536859035491943e-02 6.395228952169418335e-02 4.902328550815582275e-02 -1.640979945659637451e-02 -1.366301788948476315e-03 -7.130989432334899902e-02 -1.826234720647335052e-02 7.445471733808517456e-02 -1.844429969787597656e-02 3.346196934580802917e-02 4.832370206713676453e-02 -2.464593388140201569e-03 -6.014834344387054443e-02 5.562966689467430115e-02 -4.916731640696525574e-02 5.080810561776161194e-02 3.245098516345024109e-02 5.759207997471094131e-03 8.130321279168128967e-03 4.777798801660537720e-02 -1.522311661392450333e-02 1.021455321460962296e-02 1.857459172606468201e-02 -6.031189579516649246e-03 5.740173906087875366e-02 -7.004803419113159180e-02 5.163000896573066711e-02 -2.155585214495658875e-02 3.234676644206047058e-02 2.164445444941520691e-02 -1.063187699764966965e-02 5.275043100118637085e-02 -2.132369764149188995e-02 -4.891611635684967041e-02 2.265976928174495697e-02 -8.839652687311172485e-02 3.353195264935493469e-02 3.992906957864761353e-02 -3.743449598550796509e-02 6.333798170089721680e-02 2.248431369662284851e-02 -4.105496034026145935e-02 -3.492907807230949402e-02 7.201851904392242432e-02 7.611001376062631607e-03 -6.984092295169830322e-02 4.010941460728645325e-02 6.421990692615509033e-02 -4.829194396734237671e-02 5.309254303574562073e-02 -6.652841111645102501e-04 9.231684356927871704e-02 7.350768148899078369e-02 -5.848115310072898865e-02 5.703750252723693848e-02 -2.598045393824577332e-02 8.239196240901947021e-02 -5.604232475161552429e-02 1.840252056717872620e-02 5.562971532344818115e-02 -6.144687905907630920e-02 6.710731983184814453e-02 -2.885488560423254967e-03 -9.330207854509353638e-02 -5.752595514059066772e-02 7.946245372295379639e-03 1.278827898204326630e-02 -9.649409353733062744e-02 4.026170819997787476e-02
2.956646308302879333e-02 5.441810190677642822e-02 -6.665237247943878174e-02 7.680096477270126343e-02 8.299850858747959137e-03 -9.567350149154663086e-02 3.675449267029762268e-02 -5.902677401900291443e-02 -5.549009889364242554e-02 5.803380161523818970e-02 -5.472405254840850830e-02 -5.488685518503189087e-02 7.098481804132461548e-02 -4.568446427583694458e-03 1.932462118566036224e-02 4.109186306595802307e-02 -6.496327370405197144e-02 -3.464176505804061890e-02 -2.315851114690303802e-02 7.268001884222030640e-02 -5.142555013298988342e-02 -7.429331541061401367e-02 7.026018574833869934e-03 -7.658839970827102661e-02 -6.776524335145950317e-02 -5.088106915354728699e-02 -8.298695087432861328e-02 -6.707891821861267090e-02 -3.908492624759674072e-02 9.456649422645568848e-03 7.070498913526535034e-02 2.292191237211227417e-02 -6.253148615360260010e-02 -9.092113375663757324e-02 -6.741312891244888306e-02 -1.305701117962598801e-02 3.002523630857467651e-02 6.875070929527282715e-02 5.760522559285163879e-02 9.006890468299388885e-03 -2.135921642184257507e-02 -3.449781611561775208e-02 -3.521263599395751953e-02 4.863206297159194946e-02 -6.247974187135696411e-02 -3.734871372580528259e-02 -3.770564869046211243e-02 -8.749662339687347412e-02 2.570332027971744537e-02 -1.403294038027524948e-02 -6.209016218781471252e-02 -5.769023206084966660e-03 -8.348380774259567261e-02 7.970386184751987457e-03 -6.558381766080856323e-02 4.277976602315902710e-02 -5.393100902438163757e-02 6.223775073885917664e-02 -2.834867872297763824e-02 -7.278241217136383057e-02 2.694170735776424408e-02 3.191187977790832520e-02 -1.607593521475791931e-02 5.633339285850524902e-02 -8.468511700630187988e-02 -5.699913576245307922e-02 -1.147986296564340591e-02 -8.253157883882522583e-02 -6.402985751628875732e-02 5.965868383646011353e-02 2.625652775168418884e-02 3.281317278742790222e-02 -7.013280689716339111e-02 2.579426579177379608e-02 -6.196841225028038025e-02 5.292581394314765930e-02 -2.887117862701416016e-02 6.558179110288619995e-02 -8.268965035676956177e-02 -1.910987682640552521e-02 6.109795346856117249e-02 6.470444053411483765e-02 4.339973628520965576e-02 -6.355156749486923218e-02 -8.262711018323898315e-02 -4.558338969945907593e-02 -4.723718762397766113e-02 -6.892405450344085693e-02 8.929403498768806458e-03 5.342665128409862518e-03 -6.192117184400558472e-02 -6.335700303316116333e-02 -6.132259592413902283e-02 7.625747472047805786e-02 -9.337257593870162964e-02 4.996009543538093567e-02 -1.570899970829486847e-02 -5.722262710332870483e-02 -4.081839323043823242e-02 1.129377051256597042e-03 1.417122781276702881e-02 5.768113955855369568e-02 -9.130027145147323608e-02 3.736207634210586548e-02 -4.539595916867256165e-02 -7.124663144350051880e-02 -5.780978500843048096e-02 1.418421324342489243e-02 2.221442013978958130e-02 5.603866651654243469e-02 -3.910951316356658936e-02 -5.298566445708274841e-02 -5.192624405026435852e-02 -1.398236397653818130e-02 -9.372758120298385620e-02 -8.254507929086685181e-02 -2.679608063772320747e-03 -5.173743516206741333e-02 -7.783938199281692505e-02 -6.336285173892974854e-02 3.487461060285568237e-02 4.498496279120445251e-02 -3.450466319918632507e-02 -3.901743143796920776e-02 2.081128768622875214e-02 -3.894217684864997864e-02 7.209321856498718262e-02 3.366461768746376038e-02
-7.949359714984893799e-02 -4.931552708148956299e-02 -8.688061498105525970e-03 -7.744144648313522339e-02 3.343234211206436157e-02 4.202872142195701599e-02 3.519054735079407692e-03 2.364664152264595032e-02 2.048519998788833618e-02 -2.628467977046966553e-02 3.174120932817459106e-02 -6.836724281311035156e-02 3.134589642286300659e-02 -6.879303604364395142e-02 2.728197723627090454e-02 -6.862293928861618042e-02 -4.972298484062775970e-05 2.115021273493766785e-02 3.911850601434707642e-02 -6.453008204698562622e-02 4.795259609818458557e-02 4.204062372446060181e-02 5.402056127786636353e-02 -4.578707739710807800e-02 5.498592182993888855e-02 8.554407954216003418e-02 -3.902662545442581177e-03 -5.079606082290410995e-03 7.161168009042739868e-02 -6.264855712652206421e-02 -2.306162938475608826e-02 -6.858069449663162231e-02 8.168794959783554077e-02 -5.741686373949050903e-02 -6.615372747182846069e-02 2.216571941971778870e-02 5.059232190251350403e-02 6.496301293373107910e-02 3.970270976424217224e-02 2.110228175297379494e-03 -2.277079410851001740e-02 5.355551093816757202e-02 -8.004027418792247772e-03 8.894819021224975586e-02 -7.602804899215698242e-02 -8.670283108949661255e-02 3.809218853712081909e-02 -5.589332431554794312e-02 -4.027810320258140564e-02 -5.013939924538135529e-03 6.013919599354267120e-03 1.446608826518058777e-02 -3.303331881761550903e-02 7.601208053529262543e-04 -1.486658304929733276e-02 -1.248962152749300003e-02 4.117520526051521301e-02 2.534382976591587067e-02 -1.690829917788505554e-02 6.060030683875083923e-02 7.486444711685180664e-02 5.216657370328903198e-02 -8.134493231773376465e-02 -3.438477218151092529e-02 -5.344435572624206543e-03 2.898636832833290100e-02 -7.274564704857766628e-04 4.872823879122734070e-02 -2.828590013086795807e-02 1.413096114993095398e-02 -5.364063754677772522e-02 -3.745895251631736755e-02 7.941859960556030273e-02 -9.167609363794326782e-02 -8.273644000291824341e-02 -5.980892106890678406e-02 4.283171729184687138e-04 -2.501211501657962799e-02 1.220501400530338287e-02 4.581743478775024414e-02 8.989486843347549438e-02 -7.299085706472396851e-02 6.972359120845794678e-02 9.353190660476684570e-03 9.166420251131057739e-02 -4.008409008383750916e-02 5.182883143424987793e-02 5.330929160118103027e-02 9.258621931076049805e-02 -1.370942592620849609e-02 8.135132491588592529e-02 -1.183772925287485123e-02 -3.161187469959259033e-02 4.685654491186141968e-02 4.449662193655967712e-02 4.017384722828865051e-02 -4.838261753320693970e-02 -2.362971752882003784e-02 -1.352051924914121628e-02 6.563175469636917114e-03 7.698388397693634033e-02 -3.954527527093887329e-02 -7.372476905584335327e-02 -3.369092941284179688e-02 -1.617392525076866150e-02 -7.537201046943664551e-02 4.992059990763664246e-02 -7.231401652097702026e-02 2.545936033129692078e-02 -4.520134627819061279e-02 -3.943700343370437622e-03 -3.093305788934230804e-02 6.676469743251800537e-02 -4.729525372385978699e-02 -8.677764236927032471e-02 -2.033348754048347473e-02 -7.189188152551651001e-02 4.723196104168891907e-02 -8.157385885715484619e-02 3.442856296896934509e-02 -7.873332500457763672e-02 2.343315631151199341e-03 2.632567472755908966e-02 2.668906562030315399e-02 3.977424278855323792e-02 5.852064862847328186e-02 -5.383359268307685852e-02 1.630966551601886749e-02
-4.843323677778244019e-02 7.562383264303207397e-02 -2.952821366488933563e-02 5.687462165951728821e-02 -8.111925423145294189e-02 -6.858440488576889038e-02 5.175030231475830078e-02 2.957734838128089905e-02 7.754231244325637817e-02 5.098928883671760559e-02 5.792209506034851074e-02 7.819421589374542236e-02 1.702950336039066315e-02 2.384843304753303528e-02 -5.628036800771951675e-03 -6.936974357813596725e-03 -1.816426962614059448e-02 4.797174409031867981e-02 -9.011308103799819946e-02 3.865306079387664795e-02 -7.991757243871688843e-03 -3.815904259681701660e-02 -5.997359752655029297e-02 -1.995510794222354889e-02 5.395906046032905579e-02 -5.746358633041381836e-02 3.445272147655487061e-02 -3.840643912553787231e-02 -2.395357005298137665e-02 9.176166728138923645e-03 -8.068452775478363037e-02 -7.803615299053490162e-04 -5.618837848305702209e-02 -1.234586816281080246e-02 6.126432120800018311e-02 -1.782027445733547211e-02 8.214185386896133423e-02 -5.664594355039298534e-04 3.279307484626770020e-02 -6.981992721557617188e-02 -1.999828778207302094e-02 -6.265372037887573242e-02 -1.520538236945867538e-02 5.965550243854522705e-02 -8.217711001634597778e-02 5.315001681447029114e-02 -3.844349458813667297e-02 1.420637685805559158e-02 -4.977250471711158752e-02 -8.364504575729370117e-02 -7.142321672290563583e-03 4.008672758936882019e-02 -1.645463518798351288e-02 -5.216704308986663818e-02 -2.493776194751262665e-02 3.929007798433303833e-02 4.745415598154067993e-02 8.913477882742881775e-03 -6.097979843616485596e-02 -8.496210724115371704e-02 2.534642256796360016e-02 5.550935491919517517e-02 6.854744255542755127e-02 5.370412021875381470e-02 2.450412325561046600e-02 3.721184656023979187e-02 -7.630673050880432129e-02 -1.406927406787872314e-02 -9.471933357417583466e-03 -7.237666845321655273e-02 5.075623840093612671e-02 4.069251939654350281e-02 -9.726604074239730835e-02 -6.834793090820312500e-02 -5.946141481399536133e-02 -7.631552964448928833e-02 1.496168319135904312e-02 -8.037595078349113464e-03 -7.329837232828140259e-02 -8.609911054372787476e-02 -2.662471728399395943e-03 -8.466972410678863525e-02 5.512975156307220459e-02 -4.847592860460281372e-02 -2.149656787514686584e-02 8.825913071632385254e-03 -3.445394709706306458e-02 -4.772668704390525818e-02 -3.912821039557456970e-02 5.369607731699943542e-02 -6.750866025686264038e-02 3.407291322946548462e-02 6.473021209239959717e-02 -5.987809970974922180e-03 -4.277790337800979614e-02 -2.979893982410430908e-02 -3.392476961016654968e-02 5.121759697794914246e-02 -5.580304935574531555e-02 2.286373823881149292e-02 3.423939645290374756e-02 6.461691111326217651e-02 -6.374271959066390991e-02 -5.258758738636970520e-02 -6.711724400520324707e-02 1.077022682875394821e-02 7.441473752260208130e-02 2.763373591005802155e-02 -8.570884168148040771e-02 -6.355265527963638306e-02 7.795156538486480713e-02 -1.582337892614305019e-03 4.069892317056655884e-02 3.849178180098533630e-02 -1.784515939652919769e-02 -4.353119805455207825e-02 1.010012160986661911e-02 -9.240445680916309357e-03 -1.829119166359305382e-03 5.506087094545364380e-02 2.720945514738559723e-02 1.961748488247394562e-02 -7.584843039512634277e-02 6.010244786739349365e-02 4.066356644034385681e-02 -4.332772642374038696e-02 -6.756967306137084961e-02 -5.833427980542182922e-02
5.774629488587379456e-02 -7.268328219652175903e-02 -3.201251104474067688e-02 6.199612095952033997e-02 -9.269495308399200439e-02 -6.858012638986110687e-03 -1.397478114813566208e-02 -8.866197615861892700e-02 6.312333792448043823e-02 -7.728121429681777954e-02 2.363183721899986267e-02 -5.611398071050643921e-02 7.661832123994827271e-02 -7.419373840093612671e-02 -4.847298562526702881e-02 6.528926547616720200e-03 4.572950303554534912e-02 2.914823405444622040e-02 -7.152540981769561768e-02 3.959082998335361481e-03 6.072699278593063354e-02 -5.619549006223678589e-02 7.223537564277648926e-02 2.832152321934700012e-02 3.228735551238059998e-02 -1.515465322881937027e-03 -8.620687760412693024e-03 4.779455438256263733e-02 6.928990036249160767e-02 5.297914613038301468e-03 1.138019608333706856e-03 -2.611510222777724266e-03 -4.949278756976127625e-02 -2.692671865224838257e-02 -4.867330938577651978e-02 -1.882793568074703217e-02 -3.848869726061820984e-02 -3.107316046953201294e-02 -4.616376757621765137e-02 -8.172502368688583374e-02 7.101918011903762817e-02 -5.500792991369962692e-03 -6.076319143176078796e-02 -4.949790984392166138e-02 6.369888782501220703e-02 -2.388799935579299927e-02 4.649219661951065063e-02 -6.926441937685012817e-02 -8.875681459903717041e-02 -1.072936132550239563e-02 -4.329973671701736748e-05 -4.238583147525787354e-02 3.349918872117996216e-02 2.568310871720314026e-02 5.023532733321189880e-02 6.263838149607181549e-03 6.115600466728210449e-02 7.530170679092407227e-02 3.582974895834922791e-02 -4.046280682086944580e-02 -1.586750848218798637e-03 -7.454405725002288818e-02 6.382195651531219482e-02 -9.243615716695785522e-02 1.802394166588783264e-02 1.308355294167995453e-02 7.098989933729171753e-02 -7.534345984458923340e-02 3.630614839494228363e-03 6.442147493362426758e-02 -8.712335675954818726e-02 8.553900755941867828e-03 1.643217727541923523e-02 4.640176892280578613e-02 4.736457951366901398e-03 1.446118392050266266e-02 -5.812090821564197540e-03 7.518109679222106934e-02 7.761534303426742554e-02 5.722393840551376343e-02 2.982058934867382050e-02 5.461717024445533752e-02 4.742377996444702148e-02 2.422257326543331146e-02 -4.281630367040634155e-02 4.861975461244583130e-02 6.943161040544509888e-02 -1.695196330547332764e-02 8.354921638965606689e-02 4.782228916883468628e-02 5.751457437872886658e-02 -4.570804908871650696e-02 1.115407701581716537e-02 8.000015467405319214e-02 4.528765380382537842e-02 -7.712030410766601562e-02 -2.443799190223217010e-02 -2.023896202445030212e-02 -3.773384261876344681e-03 4.810941219329833984e-02 4.099345952272415161e-02 -2.985928766429424286e-02 6.401575170457363129e-03 7.254219055175781250e-02 -4.338835179805755615e-02 9.843489155173301697e-03 2.004354819655418396e-02 -3.890535607933998108e-02 -7.775685936212539673e-02 6.105431541800498962e-02 -3.996592760086059570e-02 -9.287792444229125977e-02 4.896286875009536743e-02 7.215084135532379150e-02 -7.172835990786552429e-03 3.580009564757347107e-02 -4.759593680500984192e-02 1.993490755558013916e-02 1.379382237792015076e-02 -5.050521716475486755e-02 2.768674306571483612e-02 -7.198401540517807007e-02 1.057692244648933411e-02 1.271562930196523666e-02 1.831167936325073242e-02 3.593128919601440430e-02 -7.254388183355331421e-02 -4.893945530056953430e-02
-1.859596744179725647e-02 -9.202381223440170288e-02 2.429701760411262512e-02 -3.090897388756275177e-02 -1.881925016641616821e-02 4.931462183594703674e-02 -7.306211441755294800e-02 -8.497726172208786011e-02 -3.777191415429115295e-02 4.862113390117883682e-03 -2.646177262067794800e-02 9.343273937702178955e-03 -4.282414913177490234e-02 -8.991005271673202515e-02 6.597165018320083618e-02 -9.641807526350021362e-02 -1.686665415763854980e-02 7.890885323286056519e-02 -2.552264928817749023e-02 3.072662651538848877e-02 -4.163787886500358582e-02 5.051468685269355774e-02 -2.807885035872459412e-02 4.618489742279052734e-02 -8.682460337877273560e-02 1.197825279086828232e-02 -3.484036400914192200e-02 4.469675570726394653e-02 -2.072482369840145111e-02 1.126564666628837585e-02 5.708048120141029358e-02 2.678715437650680542e-02 3.228428587317466736e-02 -7.169590890407562256e-02 -8.051341399550437927e-03 3.020520694553852081e-02 7.465574890375137329e-02 -1.768549159169197083e-02 8.718848228454589844e-02 8.152239769697189331e-02 2.900654822587966919e-02 4.065886512398719788e-02 -2.696619555354118347e-02 7.247117906808853149e-02 2.333734417334198952e-03 -3.856843337416648865e-02 -9.960717707872390747e-02 6.889089196920394897e-02 -3.528413549065589905e-02 -5.808856338262557983e-02 -3.968216478824615479e-02 5.450804159045219421e-02 1.801398769021034241e-02 6.524068862199783325e-02 5.313566420227289200e-03 7.413912564516067505e-02 -5.859489366412162781e-02 -4.870944656431674957e-03 -2.245955727994441986e-02 -1.020566821098327637e-01 -6.338755041360855103e-02 5.079057440161705017e-02 -3.177515789866447449e-02 -4.044676199555397034e-02 -5.410280451178550720e-02 -7.750728726387023926e-02 -2.012120373547077179e-02 -4.253525286912918091e-02 5.354132503271102905e-02 -9.486192464828491211e-02 4.096496477723121643e-02 -1.142653916031122208e-02 1.198345702141523361e-02 -7.456533610820770264e-02 -4.996744170784950256e-02 -7.209142297506332397e-02 -5.799644812941551208e-02 -1.697931624948978424e-02 -8.647562563419342041e-02 6.260817497968673706e-02 -4.500359296798706055e-02 7.623338140547275543e-03 7.943677902221679688e-02 6.511726230382919312e-02 -3.098292648792266846e-02 -6.835236400365829468e-02 -4.114351421594619751e-02 -9.244308620691299438e-02 1.890202611684799194e-02 -2.606873167678713799e-03 6.848336756229400635e-02 -6.641601026058197021e-02 -5.988232791423797607e-02 4.477327316999435425e-02 -4.313532263040542603e-03 -7.348638772964477539e-02 6.650843471288681030e-02 -4.992241412401199341e-02 1.587171107530593872e-02 6.268751341849565506e-03 5.564935132861137390e-02 5.518879741430282593e-02 3.881831094622612000e-02 5.358497798442840576e-02 -7.336311787366867065e-02 -7.786969840526580811e-02 7.326715625822544098e-03 2.333206124603748322e-02 -7.284483872354030609e-03 -1.876480132341384888e-02 5.726223438978195190e-02 -1.630176045000553131e-02 -5.823719128966331482e-02 -2.906613051891326904e-02 -9.046219289302825928e-03 6.625568121671676636e-02 -2.706495858728885651e-02 -2.492783963680267334e-02 -4.851517081260681152e-02 7.087204605340957642e-02 -3.918884694576263428e-02 -4.096237942576408386e-02 -3.306381404399871826e-02 -4.247011151164770126e-03 6.845355778932571411e-02 6.876010447740554810e-02 -4.288143664598464966e-02 -2.892543748021125793e-02
6.275244057178497314e-02 -2.236302010715007782e-02 2.148140966892242432e-02 -1.956618390977382660e-02 3.230995312333106995e-02 -5.900681018829345703e-02 -4.267241805791854858e-02 -4.305732995271682739e-02 -3.194022551178932190e-02 -1.027053594589233398e-02 -3.273998200893402100e-02 2.022739499807357788e-02 -2.027668803930282593e-02 -3.053432144224643707e-02 -5.868438258767127991e-02 -5.865651741623878479e-02 4.016766324639320374e-02 8.300934918224811554e-03 -5.603738874197006226e-02 -7.413957267999649048e-02 -5.874276533722877502e-02 1.927764154970645905e-02 -2.340036735404282808e-04 6.781835854053497314e-02 4.731526225805282593e-02 3.052925691008567810e-02 3.286507353186607361e-02 2.697738073766231537e-02 -4.846894741058349609e-02 7.715046405792236328e-02 -9.134901314973831177e-02 -1.768228784203529358e-02 -6.113746762275695801e-02 -3.738598152995109558e-02 4.993884637951850891e-02 -5.918063595890998840e-02 -2.320856146980077028e-04 2.541102468967437744e-02 -8.110095560550689697e-02 -1.668996736407279968e-02 -8.338321745395660400e-02 -8.375153690576553345e-02 -2.939292974770069122e-02 3.790881484746932983e-03 3.306197747588157654e-02 -7.752529531717300415e-02 -6.542927771806716919e-02 2.691145800054073334e-02 -6.490684300661087036e-02 -3.495258837938308716e-02 -6.520392000675201416e-02 1.431247871369123459e-02 6.649682670831680298e-02 4.562519118189811707e-02 -2.006020583212375641e-02 -6.339372694492340088e-02 -1.753127947449684143e-02 -7.838100194931030273e-03 -7.894924283027648926e-02 -6.094316393136978149e-02 5.721914023160934448e-02 -3.163166344165802002e-02 -1.120868977159261703e-02 -5.177082121372222900e-02 -3.604473546147346497e-03 -4.139128606766462326e-03 2.674398198723793030e-02 -4.935183096677064896e-03 4.898960888385772705e-02 -3.336424008011817932e-02 5.813168734312057495e-02 1.636615023016929626e-02 -6.788516044616699219e-02 1.747537776827812195e-02 -5.813861265778541565e-03 3.893046453595161438e-02 -7.017992436885833740e-02 -1.003361027687788010e-02 -1.815352402627468109e-02 -5.713038519024848938e-02 2.315228246152400970e-02 1.264577265828847885e-02 -7.014121860265731812e-02 -4.792390018701553345e-02 5.794829502701759338e-02 1.965986797586083412e-03 6.914594024419784546e-02 -6.630811840295791626e-02 7.692301273345947266e-02 -7.695736736059188843e-02 -8.209279179573059082e-02 -6.820566952228546143e-02 -5.762541294097900391e-02 -7.204551994800567627e-02 -4.143724218010902405e-02 -3.562214598059654236e-02 -8.439350873231887817e-02 -7.602809369564056396e-02 -6.055139005184173584e-02 5.989594385027885437e-02 1.906768605113029480e-02 2.911629155278205872e-02 -5.440117418766021729e-02 -4.410046339035034180e-02 5.474066361784934998e-02 6.991927325725555420e-02 -4.513655230402946472e-02 -9.289450198411941528e-02 6.490284949541091919e-02 4.313025996088981628e-02 -3.396183950826525688e-03 1.509390654973685741e-03 -7.759673148393630981e-02 -4.470228031277656555e-02 -5.126039683818817139e-02 1.690343767404556274e-02 6.683579832315444946e-02 -1.812861114740371704e-02 -1.794924610294401646e-03 -5.372400209307670593e-02 3.894891962409019470e-02 3.821101039648056030e-02 -1.095451973378658295e-02 7.363511621952056885e-02 -6.674326211214065552e-02 -4.658560454845428467e-02 4.966481029987335205e-02 2.569099655374884605e-03
-8.216609805822372437e-02 3.400093689560890198e-02 -2.592781931161880493e-02 -6.676999479532241821e-02 -8.138065785169601440e-02 -2.427674643695354462e-02 -1.829742081463336945e-02 -7.498105615377426147e-02 8.482097764499485493e-04 1.506067696027457714e-03 -8.326417952775955200e-02 6.699658185243606567e-02 -6.940655410289764404e-02 5.328119918704032898e-02 -8.497945219278335571e-02 -8.771397173404693604e-02 -8.692570030689239502e-02 9.804104268550872803e-02 3.175535425543785095e-02 3.628876805305480957e-02 -3.392947837710380554e-03 -4.911065101623535156e-02 3.232778981328010559e-02 5.491408053785562515e-03 -4.647462442517280579e-02 7.157246023416519165e-02 1.865318976342678070e-02 -3.135881945490837097e-02 -2.445763722062110901e-02 -4.061860591173171997e-02 4.472174495458602905e-02 4.117104411125183105e-02 6.007489562034606934e-02 -4.304211214184761047e-02 7.756279408931732178e-02 4.667095839977264404e-02 -2.552593126893043518e-02 3.348631085827946663e-03 -8.241803199052810669e-02 -3.143142536282539368e-02 -6.023074313998222351e-02 2.063269540667533875e-02 6.938065588474273682e-02 3.899408131837844849e-02 -5.982772260904312134e-02 -8.192088454961776733e-02 -5.341224372386932373e-03 4.699324071407318115e-02 -8.104573190212249756e-02 1.009847223758697510e-02 3.876465186476707458e-02 -9.537123888731002808e-02 4.111131280660629272e-02 9.083519130945205688e-02 4.055617377161979675e-02 2.349364198744297028e-02 -4.712843894958496094e-02 -1.863417960703372955e-02 -1.095396559685468674e-02 -2.741813287138938904e-02 -4.221831634640693665e-02 3.651230409741401672e-02 -1.387307047843933105e-02 -5.161141511052846909e-03 1.879119873046875000e-02 -1.873176731169223785e-02 5.302874371409416199e-02 8.881542086601257324e-02 -4.364020749926567078e-02 -3.807381168007850647e-02 -3.483320772647857666e-02 5.608998611569404602e-02 -2.376844361424446106e-02 -3.761469572782516479e-02 -1.634916290640830994e-02 -3.330267593264579773e-02 -1.411528326570987701e-02 -8.820130676031112671e-02 2.489168941974639893e-02 -8.374651521444320679e-02 -4.306405782699584961e-02 -4.136463627219200134e-02 -1.141218375414609909e-02 -2.511373907327651978e-02 -6.551162898540496826e-02 -1.202706713229417801e-02 1.360254921019077301e-02 -6.995396316051483154e-02 -4.311894997954368591e-02 -8.854942768812179565e-02 1.700466126203536987e-02 4.199371859431266785e-02 -5.001287907361984253e-02 -8.456712961196899414e-02 -1.115366071462631226e-02 7.450016587972640991e-02 5.401274189352989197e-02 3.151157870888710022e-02 6.773772835731506348e-02 1.770876348018646240e-02 -3.598063439130783081e-02 1.522622443735599518e-02 -5.555335804820060730e-02 -1.038772519677877426e-02 -2.355214208364486694e-02 -6.425683200359344482e-02 4.119216278195381165e-02 -6.425193510949611664e-03 8.480856567621231079e-02 6.934068351984024048e-02 -4.673616960644721985e-02 2.863765507936477661e-02 -6.796466559171676636e-02 -3.793712705373764038e-03 5.150396004319190979e-02 -2.713084965944290161e-02 -6.606335751712322235e-03 -7.401859760284423828e-02 -7.984463870525360107e-02 -8.031070977449417114e-02 -8.679441362619400024e-02 -3.361768275499343872e-02 2.960798144340515137e-02 2.358002960681915283e-02 -7.291352376341819763e-04 5.549125745892524719e-02 -1.484848093241453171e-02 1.587212458252906799e-02
-2.512063644826412201e-02 -8.575798571109771729e-02 -2.745730744209140539e-04 -8.442187309265136719e-02 -2.247096784412860870e-02 3.790920227766036987e-02 -7.837127149105072021e-02 -8.909087628126144409e-02 5.394199490547180176e-02 -2.421508356928825378e-02 -1.961683854460716248e-02 1.621598750352859497e-02 6.378637999296188354e-02 -1.112616038881242275e-03 -4.862703755497932434e-02 -2.095394767820835114e-02 -8.024725317955017090e-02 -7.468034327030181885e-02 5.954815074801445007e-02 2.459209226071834564e-02 5.136064812541007996e-02 3.069940395653247833e-02 5.119907204061746597e-03 -2.347068628296256065e-03 -6.778164301067590714e-03 -6.316632777452468872e-02 8.187565207481384277e-02 5.386513471603393555e-02 6.638985127210617065e-02 6.132788956165313721e-02 1.087009347975254059e-02 3.558533499017357826e-03 4.078980162739753723e-02 1.377700082957744598e-02 3.741924464702606201e-02 -3.939720615744590759e-02 -3.874544985592365265e-03 -7.691568136215209961e-02 -7.578469067811965942e-02 -3.505454212427139282e-02 5.798927694559097290e-02 8.847501128911972046e-03 -3.255609795451164246e-02 5.704816896468400955e-03 -1.328336447477340698e-02 1.322519313544034958e-02 -7.366341352462768555e-02 -4.607721045613288879e-02 -8.605395257472991943e-02 5.504919588565826416e-02 7.534564286470413208e-02 4.296859353780746460e-02 -2.927805669605731964e-02 1.182221435010433197e-02 -6.416659057140350342e-02 8.306796103715896606e-02 5.784885492175817490e-03 2.140170708298683167e-02 1.111613307148218155e-02 1.460348721593618393e-02 -5.650803074240684509e-02 -5.813613533973693848e-02 3.767264261841773987e-02 1.183772739022970200e-02 -8.034905046224594116e-02 7.706680148839950562e-02 7.958479225635528564e-02 -5.907050147652626038e-02 -2.909627370536327362e-02 -5.613259971141815186e-02 -9.466051310300827026e-02 2.371043525636196136e-02 1.883750956039875746e-04 1.692117191851139069e-02 2.396839903667569160e-03 -7.676959782838821411e-02 -7.323765009641647339e-02 5.996919795870780945e-02 -5.209091678261756897e-02 7.379587739706039429e-02 5.208184570074081421e-02 2.392067573964595795e-02 -6.911034882068634033e-02 7.954107969999313354e-02 5.375234782695770264e-02 -1.845547370612621307e-02 2.323424443602561951e-02 3.361757844686508179e-02 -5.567286536097526550e-02 4.642203822731971741e-02 4.673809930682182312e-02 -3.079032152891159058e-02 6.622574478387832642e-02 -3.115476481616497040e-02 7.595647126436233521e-02 -6.566422432661056519e-02 5.229860544204711914e-02 -9.982721507549285889e-02 -2.266035228967666626e-02 -8.702845126390457153e-02 1.344888005405664444e-03 6.090378761291503906e-02 4.009199142456054688e-02 -6.023811921477317810e-02 -9.131884574890136719e-02 9.252087771892547607e-02 -8.080024272203445435e-02 -8.157896250486373901e-02 -8.608032949268817902e-03 -4.191037267446517944e-02 -6.231100112199783325e-02 -8.784742676652967930e-04 2.765730954706668854e-02 6.683301180601119995e-02 5.850670486688613892e-02 -2.425611019134521484e-02 -4.345896095037460327e-02 -7.144493609666824341e-02 -7.303556054830551147e-02 -5.488887056708335876e-02 4.065493494272232056e-02 7.530786842107772827e-02 7.880109548568725586e-02 3.949951007962226868e-02 -6.749428575858473778e-04 -4.962910339236259460e-02 3.113191947340965271e-02 -3.524971753358840942e-02
-6.728522479534149170e-02 -6.396487355232238770e-02 -3.493264690041542053e-02 -1.520073856227099895e-03 5.409247800707817078e-02 -3.578178584575653076e-02 2.435392141342163086e-02 7.918341457843780518e-02 -1.647860556840896606e-02 -8.045225590467453003e-02 -4.857914522290229797e-02 -1.767561212182044983e-02 -1.614507287740707397e-03 8.211654610931873322e-03 -8.055108040571212769e-02 -7.649220526218414307e-03 -5.414512124843895435e-04 2.634096331894397736e-02 1.823807833716273308e-03 5.574959889054298401e-02 6.092659663408994675e-03 3.227140381932258606e-02 -2.588053233921527863e-02 -5.386461503803730011e-03 6.736281514167785645e-02 -7.097473740577697754e-02 3.927976638078689575e-02 8.835916221141815186e-02 -5.160168185830116272e-02 -6.347692757844924927e-02 -4.348131641745567322e-02 -5.049889534711837769e-02 -1.392152067273855209e-02 -5.671787634491920471e-02 -2.441367506980895996e-02 -4.046669974923133850e-02 7.580830901861190796e-02 -3.922722302377223969e-03 -8.465246856212615967e-02 6.131941080093383789e-02 3.379622474312782288e-02 6.934332847595214844e-02 -1.925490610301494598e-02 4.061879590153694153e-02 -2.352733910083770752e-02 1.121110375970602036e-02 1.581522636115550995e-02 -6.993511319160461426e-02 4.078485444188117981e-02 -9.910662192851305008e-04 1.728226616978645325e-02 7.741184532642364502e-02 1.346921641379594803e-02 5.169697478413581848e-02 -3.909472376108169556e-02 5.776272714138031006e-02 -7.392679154872894287e-02 -4.649350792169570923e-02 3.457187861204147339e-02 -7.665372639894485474e-02 6.005848199129104614e-02 -5.626849085092544556e-02 -6.011530384421348572e-02 -6.714138388633728027e-02 3.690722584724426270e-02 -3.806965798139572144e-02 -3.154760971665382385e-02 -8.966032415628433228e-02 3.471042728051543236e-03 -3.265406191349029541e-02 3.262030333280563354e-02 -4.521043226122856140e-02 4.881761968135833740e-02 -3.384809195995330811e-02 3.273690119385719299e-02 -4.839271306991577148e-02 6.070268526673316956e-02 -4.597690328955650330e-02 -7.885301858186721802e-02 -7.748989760875701904e-02 -5.429266393184661865e-02 7.106421887874603271e-02 4.094775766134262085e-02 -7.701957970857620239e-02 -8.109614998102188110e-02 1.665288954973220825e-02 1.110088918358087540e-02 -5.052994936704635620e-02 1.059138495475053787e-02 7.489541172981262207e-02 -1.222862862050533295e-02 6.549933552742004395e-02 2.912841737270355225e-02 -2.799242734909057617e-02 -6.534661352634429932e-02 4.938854277133941650e-02 2.339445799589157104e-02 -6.669348478317260742e-02 -8.009622246026992798e-02 6.261054892092943192e-03 5.697685480117797852e-02 7.037746161222457886e-02 4.894252866506576538e-02 -2.109865285456180573e-02 3.105244599282741547e-02 -2.972615696489810944e-02 -3.402672708034515381e-02 -7.236763089895248413e-02 -6.598231196403503418e-02 -4.450920969247817993e-02 8.630179613828659058e-02 -7.625386863946914673e-02 3.947545588016510010e-02 -6.570295244455337524e-02 -1.067778188735246658e-02 -6.975737959146499634e-02 1.832712627947330475e-02 9.674426168203353882e-03 -3.290682286024093628e-02 -2.499240450561046600e-03 5.882208794355392456e-02 -7.000840455293655396e-02 -6.029684469103813171e-02 -1.503364369273185730e-02 -9.009249508380889893e-02 -4.119277000427246094e-02 -4.412151500582695007e-02 -7.673610746860504150e-02
-6.153068691492080688e-02 -7.183700054883956909e-02 -1.525518205016851425e-02 -7.929397374391555786e-02 -6.910377740859985352e-02 4.859010688960552216e-03 7.456006854772567749e-02 -4.609952121973037720e-02 -4.615944996476173401e-02 -6.862010061740875244e-02 -1.104121562093496323e-02 5.831133946776390076e-02 -4.077756404876708984e-02 -7.038323581218719482e-02 -1.989662460982799530e-02 -1.465344708412885666e-02 -8.204144239425659180e-02 -3.509693220257759094e-02 5.408784840255975723e-03 4.205502942204475403e-02 6.883186870254576206e-04 6.996686104685068130e-03 -5.046958103775978088e-03 1.394052430987358093e-02 4.316627606749534607e-02 5.765878036618232727e-02 3.265494108200073242e-02 4.041831567883491516e-02 -8.189577609300613403e-02 8.433570154011249542e-03 8.108696341514587402e-02 9.497537463903427124e-02 7.542588561773300171e-02 -4.919927567243576050e-02 1.415413431823253632e-02 1.792794838547706604e-02 -2.372759766876697540e-02 -6.277558277361094952e-04 6.762013584375381470e-02 7.866114377975463867e-02 1.029668096452951431e-02 7.825763896107673645e-03 -5.737962946295738220e-02 1.819472946226596832e-02 -8.737519383430480957e-02 -1.895890571177005768e-03 7.707347162067890167e-03 2.502539567649364471e-02 -4.507405683398246765e-03 -4.927779361605644226e-02 7.819197326898574829e-02 3.583211824297904968e-02 1.180655043572187424e-02 2.527692914009094238e-02 -7.992831617593765259e-02 4.110939428210258484e-02 4.036036878824234009e-02 4.804494604468345642e-02 -8.556273579597473145e-02 1.123561151325702667e-02 3.600695356726646423e-02 -1.160878315567970276e-02 -4.225436225533485413e-02 -8.830363303422927856e-02 6.979313492774963379e-02 -6.797876954078674316e-02 -7.324995100498199463e-02 -1.788457296788692474e-02 1.850385591387748718e-02 -1.475347205996513367e-02 -7.904620841145515442e-03 -6.144190207123756409e-02 -4.948858916759490967e-02 5.332257971167564392e-02 -6.451099365949630737e-02 -5.050956085324287415e-02 4.464099928736686707e-02 -4.995054751634597778e-02 -7.177519053220748901e-02 2.153616957366466522e-02 -2.596324495971202850e-02 6.556563079357147217e-03 4.708592966198921204e-02 -1.947415620088577271e-02 -2.685157582163810730e-02 4.213728383183479309e-02 -2.318376302719116211e-02 -7.392280548810958862e-02 -7.939705252647399902e-02 -8.107442408800125122e-02 4.623473063111305237e-02 -1.800543442368507385e-02 4.605877771973609924e-02 7.033277302980422974e-02 -8.594562113285064697e-02 -8.126780390739440918e-02 -7.393939793109893799e-02 -8.582176268100738525e-02 3.445341065526008606e-02 5.178331211209297180e-02 -1.440223865211009979e-02 -7.894027978181838989e-02 5.268317088484764099e-02 1.459969487041234970e-02 -3.602097928524017334e-02 5.519093945622444153e-02 -2.789944969117641449e-02 -7.566592842340469360e-02 3.485549986362457275e-02 -1.001186482608318329e-02 -1.316065434366464615e-02 -2.468469738960266113e-02 -6.856918334960937500e-02 -6.644511967897415161e-02 2.924734540283679962e-02 -4.723280668258666992e-03 4.677914455533027649e-02 6.024763360619544983e-02 -2.881786599755287170e-02 5.928308516740798950e-02 -2.053260250249877572e-04 -9.138398617506027222e-02 5.827120505273342133e-03 4.457519948482513428e-02 6.114000827074050903e-02 -6.440870463848114014e-02 -2.121090330183506012e-02 1.590547338128089905e-02
-1.548816170543432236e-02 -2.949402108788490295e-02 7.984424382448196411e-02 3.285157680511474609e-02 -8.243707567453384399e-02 5.776386708021163940e-02 -3.602720424532890320e-02 5.189792439341545105e-02 8.128906786441802979e-02 8.035741001367568970e-02 2.687385492026805878e-02 -4.187175258994102478e-02 1.649635843932628632e-02 2.828274853527545929e-02 9.331041015684604645e-03 -5.758991092443466187e-02 -6.674268096685409546e-02 -3.184949979186058044e-02 -7.629342377185821533e-02 3.094719909131526947e-02 -6.418800354003906250e-02 -6.023503839969635010e-03 9.229104034602642059e-03 -2.317001298069953918e-02 9.241489693522453308e-03 3.697837516665458679e-02 -7.633399218320846558e-02 2.409719303250312805e-02 2.523683477193117142e-03 4.154201969504356384e-02 3.344091027975082397e-02 7.091785222291946411e-02 -7.836849987506866455e-02 5.490412563085556030e-02 -8.124998956918716431e-02 -8.956997655332088470e-03 4.131723195314407349e-02 -2.612558938562870026e-02 -4.615612328052520752e-03 -8.152206987142562866e-02 -7.448583096265792847e-02 5.728471651673316956e-02 7.720002532005310059e-02 2.650740556418895721e-02 1.040840614587068558e-02 -1.531617622822523117e-02 -6.434403359889984131e-02 -2.540610916912555695e-02 -2.892396971583366394e-02 -8.773910999298095703e-02 8.804675936698913574e-02 -4.731393977999687195e-02 3.294308483600616455e-02 -5.525530874729156494e-02 4.468733444809913635e-02 6.452435255050659180e-02 7.817713916301727295e-02 -3.163523226976394653e-02 -7.885275781154632568e-02 2.306985296308994293e-02 -5.488774180412292480e-02 1.044724322855472565e-02 6.983964890241622925e-02 -5.927307158708572388e-02 5.946731939911842346e-02 -7.641781121492385864e-02 7.755754142999649048e-02 -5.466335639357566833e-02 -2.235992066562175751e-02 -1.889634318649768829e-02 2.519847638905048370e-02 2.174855209887027740e-02 8.444987982511520386e-02 7.536702603101730347e-02 3.096250630915164948e-02 -4.422923177480697632e-02 -6.110164895653724670e-02 4.548808559775352478e-02 4.649071767926216125e-02 2.569827809929847717e-02 6.113369390368461609e-02 -3.737466782331466675e-02 7.432049512863159180e-02 2.335589565336704254e-02 -4.774032905697822571e-02 -7.260347157716751099e-02 2.592710591852664948e-02 -6.811412051320075989e-03 -7.506509870290756226e-02 4.272140190005302429e-02 -3.495911136269569397e-02 -5.916094779968261719e-02 6.378057599067687988e-02 -5.283142998814582825e-02 -5.069265142083168030e-02 -8.158149570226669312e-02 -6.864720582962036133e-02 2.809744514524936676e-02 -6.256474554538726807e-02 -4.895515367388725281e-02 -3.479331033304333687e-03 2.386218123137950897e-02 -4.253388196229934692e-02 -5.596360191702842712e-02 -3.263744711875915527e-02 1.863133907318115234e-02 -8.203770220279693604e-02 5.856902524828910828e-02 2.127692569047212601e-03 -8.777129650115966797e-02 6.688507646322250366e-02 2.678865939378738403e-02 -7.226631790399551392e-02 -1.413142867386341095e-02 6.730984151363372803e-02 -1.340356282889842987e-02 -1.403944939374923706e-02 6.608616560697555542e-02 2.016684040427207947e-02 8.338628336787223816e-03 -3.262706100940704346e-02 6.845183670520782471e-02 -6.693488359451293945e-02 -7.306317985057830811e-02 -8.228799700736999512e-02 -7.776806503534317017e-02 -6.057908385992050171e-02 -6.411775946617126465e-02
3.338913619518280029e-02 5.861257389187812805e-02 1.012609526515007019e-02 -3.664562851190567017e-02 -5.993242189288139343e-02 6.538454443216323853e-02 7.775259763002395630e-02 6.767282634973526001e-02 4.335363581776618958e-02 -1.435913983732461929e-02 4.876228794455528259e-02 -5.970604717731475830e-02 -1.211057417094707489e-02 7.280620187520980835e-02 -5.159722641110420227e-02 6.588403135538101196e-02 -2.985221799463033676e-04 6.527311354875564575e-02 1.473046932369470596e-02 -3.937141504138708115e-03 -3.811219707131385803e-02 3.259078785777091980e-02 6.482480559498071671e-03 2.372683584690093994e-02 -7.932676374912261963e-02 8.307109773159027100e-02 -7.021776866167783737e-03 -4.900885745882987976e-02 -1.643853634595870972e-02 -1.610054261982440948e-02 -8.510166406631469727e-02 7.671706378459930420e-02 -3.210782632231712341e-02 -2.646883204579353333e-02 -1.612037234008312225e-02 3.281181305646896362e-02 -4.907162487506866455e-02 2.641704678535461426e-02 -1.588564738631248474e-02 6.111494265496730804e-03 -4.007057473063468933e-02 -6.755632162094116211e-02 1.614075526595115662e-02 6.804595142602920532e-02 1.289590075612068176e-02 7.863105833530426025e-02 2.941169776022434235e-02 4.066983237862586975e-02 2.178471349179744720e-02 -5.457673221826553345e-02 -6.709598470479249954e-03 5.099305510520935059e-02 7.457085698843002319e-02 -6.523633003234863281e-02 3.027489036321640015e-02 -6.818716228008270264e-02 -5.280130356550216675e-02 -8.524289727210998535e-02 7.598451524972915649e-02 -2.190865576267242432e-02 -7.822320796549320221e-03 -3.945065662264823914e-02 -2.863133326172828674e-02 -6.135847792029380798e-02 -7.098810374736785889e-02 -3.492644056677818298e-02 -2.676047943532466888e-02 5.905786156654357910e-02 -2.701726369559764862e-02 6.598580628633499146e-02 -6.532067060470581055e-02 -3.842287883162498474e-02 4.851061105728149414e-02 -1.758277602493762970e-02 1.193534862250089645e-02 -8.432390540838241577e-02 3.219836577773094177e-02 3.341522812843322754e-02 5.550380423665046692e-02 8.448974788188934326e-02 7.316442579030990601e-02 7.006961107254028320e-02 4.847862944006919861e-02 5.992107465863227844e-02 4.162269085645675659e-02 -2.335940115153789520e-02 7.216772437095642090e-02 7.666660845279693604e-02 7.723088562488555908e-02 4.224054515361785889e-03 -5.013309419155120850e-02 -6.542447954416275024e-02 6.903650611639022827e-02 -5.288250744342803955e-02 3.051449917256832123e-02 -3.833847818896174431e-03 -2.513490989804267883e-02 -4.537595808506011963e-02 6.016337871551513672e-02 -2.752009080722928047e-03 -6.475447118282318115e-02 4.041545093059539795e-02 1.796050183475017548e-02 -5.653997883200645447e-02 -1.841489598155021667e-02 -7.950487546622753143e-03 8.394547551870346069e-02 -6.528664380311965942e-02 4.383172839879989624e-03 -5.154662951827049255e-02 -8.873467147350311279e-02 -1.649701409041881561e-02 -1.648341713007539511e-04 5.327728390693664551e-02 1.734561100602149963e-02 3.805518895387649536e-02 -7.866446673870086670e-02 1.053240339388139546e-04 -6.717507727444171906e-03 -2.270124480128288269e-02 5.777786299586296082e-02 -4.185378551483154297e-02 -8.973393589258193970e-02 -2.204220509156584740e-03 -7.588889449834823608e-02 4.058495163917541504e-02 -3.011886961758136749e-02 2.909289114177227020e-02
3.766367211937904358e-02 1.037398818880319595e-02 8.472837507724761963e-02 -1.601898483932018280e-02 -8.082632720470428467e-02 8.217908442020416260e-02 4.150005057454109192e-02 1.208354067057371140e-02 -2.099005132913589478e-02 -4.390534758567810059e-02 -1.360290031880140305e-02 3.012762032449245453e-02 -4.588931053876876831e-02 8.867272734642028809e-02 -3.434358164668083191e-02 -3.756941854953765869e-02 7.070138305425643921e-02 8.983191847801208496e-02 1.868645311333239079e-03 -4.488773643970489502e-02 -5.515904352068901062e-02 6.711197644472122192e-02 -3.587150201201438904e-02 6.050597503781318665e-02 1.451846398413181305e-02 -3.361335396766662598e-02 2.999075455591082573e-03 -8.665338903665542603e-02 -9.026367962360382080e-02 4.242211952805519104e-02 -3.104754909873008728e-02 4.517279192805290222e-02 -6.009674817323684692e-02 7.839556783437728882e-02 -8.446215093135833740e-02 8.761635422706604004e-02 -5.306439474225044250e-02 -2.605029009282588959e-02 -2.424781955778598785e-02 -5.399230867624282837e-03 -4.627510905265808105e-02 7.708869874477386475e-02 5.314568802714347839e-02 4.693619161844253540e-02 8.105530589818954468e-02 3.397350013256072998e-02 7.856235653162002563e-02 4.722050577402114868e-02 -7.070965319871902466e-02 -9.739573579281568527e-04 7.814772427082061768e-02 6.283073872327804565e-02 -5.916649475693702698e-02 -5.297033488750457764e-02 5.620489269495010376e-02 -6.882100552320480347e-02 5.046733096241950989e-02 2.686483599245548248e-02 -5.524341762065887451e-02 2.798179164528846741e-02 -4.996502026915550232e-02 3.218384692445397377e-03 4.979006189387291670e-05 -2.028217352926731110e-02 1.509360596537590027e-02 5.208932235836982727e-02 -3.612308576703071594e-02 -5.275866389274597168e-02 5.360764637589454651e-02 -3.878663107752799988e-02 -3.306205384433269501e-03 -2.945042913779616356e-03 2.402478270232677460e-02 4.768801108002662659e-02 -7.515493035316467285e-02 -6.135443970561027527e-02 -5.876615270972251892e-02 5.219981074333190918e-02 -2.463280223309993744e-02 7.140727341175079346e-02 -2.368665672838687897e-02 -4.592403396964073181e-02 1.601530797779560089e-02 6.246575713157653809e-02 -3.449680656194686890e-02 -1.918807253241539001e-02 7.151539623737335205e-02 1.426137425005435944e-02 -4.918625345453619957e-04 -1.106572430580854416e-02 -3.027179744094610214e-03 4.826070740818977356e-02 8.896364271640777588e-02 8.400946110486984253e-02 -2.565984055399894714e-02 -2.282924251630902290e-03 2.821206580847501755e-03 1.369947567582130432e-02 -5.062189698219299316e-02 5.703252926468849182e-02 5.757712945342063904e-02 -7.737214118242263794e-02 8.698067627847194672e-03 -3.999078273773193359e-02 -7.176957279443740845e-02 3.019934147596359253e-02 3.840579837560653687e-02 1.471541635692119598e-02 -6.321983784437179565e-02 4.298309981822967529e-02 -6.724712252616882324e-02 -1.293702283874154091e-03 -5.384677276015281677e-02 9.317537397146224976e-02 7.386294007301330566e-02 6.091978773474693298e-02 6.906615942716598511e-02 -3.092505596578121185e-02 6.560997664928436279e-02 2.407289855182170868e-02 6.471613049507141113e-02 4.942589625716209412e-02 4.742411896586418152e-02 -7.846879959106445312e-02 1.278118975460529327e-02 9.434132277965545654e-02 4.960946366190910339e-02 6.187689304351806641e-02
6.566808372735977173e-02 6.758292019367218018e-02 6.442664191126823425e-03 7.591738551855087280e-02 1.227739499881863594e-03 -5.359812453389167786e-02 -5.491687916219234467e-04 -7.635472808033227921e-03 3.808296844363212585e-02 -3.640920668840408325e-02 -1.424173824489116669e-02 -2.311451174318790436e-02 -2.660440653562545776e-02 6.780654191970825195e-02 1.684465445578098297e-02 -2.184994705021381378e-02 3.081668168306350708e-02 -6.235996261239051819e-02 -5.096554383635520935e-02 5.611049383878707886e-02 -5.855787545442581177e-02 -8.750630915164947510e-02 1.325804181396961212e-02 -7.799620926380157471e-02 -5.523853003978729248e-03 8.353003114461898804e-02 -5.476587638258934021e-02 -2.414401806890964508e-02 7.306397706270217896e-02 3.767152875661849976e-02 3.195502981543540955e-02 1.537336502224206924e-02 -1.303601544350385666e-02 6.022495776414871216e-02 4.094995930790901184e-02 1.748907566070556641e-02 -1.840294338762760162e-02 -3.490658104419708252e-02 5.798110738396644592e-03 -1.270831446163356304e-03 5.704573541879653931e-02 3.584158793091773987e-02 1.892871595919132233e-02 -2.280613966286182404e-02 -7.718347012996673584e-02 -5.677891150116920471e-02 -6.532078236341476440e-02 -8.137708902359008789e-02 1.728510297834873199e-02 6.588215380907058716e-02 -3.992437943816184998e-02 1.423793938010931015e-02 -6.783577799797058105e-02 -1.181839313358068466e-02 -1.459455862641334534e-02 -4.273695498704910278e-02 2.867133589461445808e-03 -5.088985338807106018e-02 1.479689124971628189e-02 -2.056103385984897614e-02 -3.622004762291908264e-02 -4.073564335703849792e-02 8.673891425132751465e-03 4.356890544295310974e-02 -4.350746795535087585e-02 8.481091260910034180e-02 -6.502203643321990967e-02 3.969953581690788269e-02 -8.570478111505508423e-02 -2.505456330254673958e-03 5.420641228556632996e-02 -4.274241998791694641e-02 3.562036901712417603e-02 2.890973351895809174e-02 2.830709517002105713e-02 -1.043944968841969967e-03 -2.654517255723476410e-02 -7.447183597832918167e-04 -6.735125184059143066e-02 -3.270645439624786377e-02 -6.252367794513702393e-02 -5.056500807404518127e-02 -2.802924439311027527e-02 2.626968547701835632e-02 -2.867836877703666687e-02 1.592537574470043182e-02 8.564196527004241943e-02 2.355013787746429443e-02 4.149027168750762939e-02 3.070006892085075378e-02 4.504012688994407654e-02 5.372870340943336487e-02 -8.360506966710090637e-03 -7.771445065736770630e-02 -7.808586955070495605e-02 -1.482040062546730042e-02 -5.665287002921104431e-02 -6.047573313117027283e-02 -7.365746051073074341e-02 -1.007845345884561539e-02 -5.715414509177207947e-02 -6.226666644215583801e-02 -5.215805768966674805e-02 5.090258643031120300e-02 -1.594673842191696167e-02 -4.604179039597511292e-02 -4.610531032085418701e-02 -4.123370721936225891e-02 3.357578441500663757e-02 1.441156212240457535e-02 -4.132836312055587769e-02 8.897849917411804199e-02 -6.361916661262512207e-02 -5.996702611446380615e-02 -8.505520969629287720e-02 8.557135611772537231e-02 -5.114614218473434448e-02 -5.844897404313087463e-02 2.818448119796812534e-04 7.728776335716247559e-02 6.763094104826450348e-03 4.176085442304611206e-02 2.067217975854873657e-02 5.461371038109064102e-04 1.616150606423616409e-03 5.479532293975353241e-03 2.008769288659095764e-02 6.376469880342483521e-02
-4.625225439667701721e-02 2.410665713250637054e-02 1.178294513374567032e-02 7.135512679815292358e-02 9.122134745121002197e-02 -2.560099586844444275e-02 -2.989937178790569305e-02 6.880305707454681396e-02 -7.024548947811126709e-03 -5.717810243368148804e-02 3.161663934588432312e-02 2.149288542568683624e-02 -7.213836908340454102e-02 9.333958476781845093e-02 7.586035877466201782e-02 -6.538311392068862915e-02 6.581833213567733765e-02 2.133873850107192993e-02 1.307529024779796600e-02 -1.836099661886692047e-02 1.551047619432210922e-02 -1.401592511683702469e-02 5.982054397463798523e-02 -9.535660035908222198e-03 -5.308977887034416199e-02 -6.289751827716827393e-02 1.360362954437732697e-02 -5.353881791234016418e-02 5.253797024488449097e-02 3.876056149601936340e-02 5.696953088045120239e-02 -2.971848659217357635e-02 -1.995955780148506165e-02 6.787306815385818481e-02 3.188495337963104248e-02 -4.794086143374443054e-02 -6.491888314485549927e-02 6.513807177543640137e-02 1.486439257860183716e-02 7.600118964910507202e-02 -2.902751788496971130e-02 -5.617129057645797729e-02 2.133169211447238922e-02 -2.549803629517555237e-02 4.859817773103713989e-02 -4.009621590375900269e-02 1.448026485741138458e-02 7.168224547058343887e-03 2.125946432352066040e-02 7.002887129783630371e-02 -5.129828676581382751e-02 3.629687242209911346e-03 -6.767972558736801147e-02 5.627620592713356018e-02 5.613550543785095215e-02 -8.757034689188003540e-02 6.675684452056884766e-02 2.244374528527259827e-02 7.466255128383636475e-02 5.162164941430091858e-02 -3.649008227512240410e-03 2.605163678526878357e-02 6.670677661895751953e-02 9.005010873079299927e-02 9.588181972503662109e-02 5.465828813612461090e-03 -7.108259201049804688e-02 2.792561659589409828e-03 3.966050826420541853e-06 3.290221467614173889e-02 4.947334155440330505e-02 1.081301644444465637e-02 -3.103536553680896759e-02 -1.858535106293857098e-03 5.264918506145477295e-02 -1.147892698645591736e-02 8.997863531112670898e-02 -2.973431907594203949e-02 -6.534098088741302490e-02 6.993304193019866943e-02 1.516314595937728882e-02 7.587450742721557617e-02 -6.888638436794281006e-02 5.298257619142532349e-02 3.681245958432555199e-03 7.036615908145904541e-02 3.979866206645965576e-02 3.875749930739402771e-02 -2.361988276243209839e-02 3.550274670124053955e-02 2.964991703629493713e-02 -2.662907168269157410e-02 2.937698923051357269e-02 -4.757218062877655029e-02 8.852832019329071045e-02 6.822051852941513062e-02 -1.728723756968975067e-02 -2.407152578234672546e-02 5.710917711257934570e-02 5.740029737353324890e-02 -3.427788987755775452e-02 -2.150743640959262848e-02 3.451193124055862427e-02 -5.219558998942375183e-02 6.575644016265869141e-03 -8.968704938888549805e-02 4.424988850951194763e-02 3.145184600725769997e-03 7.806313782930374146e-02 1.563872094266116619e-03 2.496656775474548340e-02 6.434097886085510254e-02 -2.621071599423885345e-02 6.417312473058700562e-02 6.597585044801235199e-03 5.404838174581527710e-02 1.193961827084422112e-03 -6.107237190008163452e-02 2.464511198922991753e-03 -4.523059353232383728e-02 8.011268824338912964e-02 -5.328563600778579712e-02 6.285469979047775269e-02 2.642855281010270119e-03 9.650284424424171448e-03 2.119372971355915070e-02 1.213322859257459641e-02 6.718690972775220871e-03
6.862200051546096802e-02 -3.296298533678054810e-02 -7.877726107835769653e-02 -5.448166653513908386e-02 -5.826906859874725342e-02 -3.012753091752529144e-03 -5.416243150830268860e-02 3.174699097871780396e-02 -2.357612550258636475e-02 -5.761097371578216553e-02 7.653640955686569214e-02 7.482465356588363647e-02 -4.634032398462295532e-02 -6.284939497709274292e-02 4.811550676822662354e-02 9.564669430255889893e-02 5.796317127533257008e-04 4.542483761906623840e-02 2.313045226037502289e-02 3.138510510325431824e-02 -5.342204123735427856e-02 4.122962430119514465e-02 -7.435408979654312134e-02 -3.820495912805199623e-03 1.696934178471565247e-02 -5.388677492737770081e-02 7.766739279031753540e-02 -4.074162244796752930e-02 -5.980252847075462341e-02 7.157146930694580078e-02 2.513390779495239258e-02 -5.313699692487716675e-02 6.913542002439498901e-02 -5.925196036696434021e-02 2.317437343299388885e-02 -7.497187703847885132e-02 5.438323318958282471e-02 1.328261941671371460e-02 5.536219477653503418e-02 3.092405572533607483e-02 2.569463849067687988e-02 -1.727098040282726288e-02 9.825028479099273682e-03 3.905815258622169495e-02 8.617209643125534058e-02 6.609641015529632568e-02 -3.243733569979667664e-02 8.109581470489501953e-02 3.938804194331169128e-02 -2.996691502630710602e-02 -4.084350913763046265e-02 6.723178178071975708e-02 7.679904997348785400e-02 3.356040269136428833e-02 -4.760116338729858398e-02 2.159648947417736053e-02 3.866561502218246460e-02 -9.323412552475929260e-03 3.871554881334304810e-02 -2.049231529235839844e-02 -4.369890317320823669e-03 7.084056735038757324e-02 5.059354007244110107e-03 9.619888663291931152e-02 4.844425618648529053e-02 3.958964347839355469e-02 2.968337852507829666e-03 -6.919657438993453979e-02 3.160271444357931614e-04 -4.870324209332466125e-02 1.135152857750654221e-02 -7.143384218215942383e-02 3.516494110226631165e-02 -6.812790036201477051e-02 6.996642053127288818e-02 3.424621373414993286e-02 -2.080069668591022491e-02 7.517995312809944153e-03 -1.986433938145637512e-02 2.120783738791942596e-02 -3.930903971195220947e-03 -7.674265652894973755e-02 3.932467475533485413e-02 -5.177030712366104126e-02 -2.963225357234477997e-02 1.402935013175010681e-02 6.404599547386169434e-02 -4.040066152811050415e-02 6.441183388233184814e-02 -1.685410179197788239e-02 -4.676242358982563019e-03 -6.866448372602462769e-02 7.023139297962188721e-02 4.231338948011398315e-02 2.379223890602588654e-02 8.045580983161926270e-02 7.491569966077804565e-03 -3.931505978107452393e-02 -1.579164154827594757e-02 8.856303989887237549e-02 8.479738235473632812e-02 3.152010589838027954e-02 7.987916469573974609e-02 5.588430911302566528e-02 -2.566219866275787354e-02 -9.010507166385650635e-02 -4.683466255664825439e-02 8.369449526071548462e-02 3.190789744257926941e-02 -2.073074690997600555e-02 5.508933588862419128e-02 -2.485382184386253357e-02 -7.228146493434906006e-02 3.118396177887916565e-02 -3.821298107504844666e-02 9.421207755804061890e-02 8.949465304613113403e-02 -6.640347838401794434e-02 -2.373075671494007111e-02 7.250106334686279297e-02 -8.550250204280018806e-04 -1.124491728842258453e-02 -8.572160452604293823e-02 -6.518531590700149536e-02 5.508422106504440308e-02 -4.796575382351875305e-02 6.216096132993698120e-02 7.050463557243347168e-02
9.456033259630203247e-02 -3.390972036868333817e-03 3.442093357443809509e-02 -5.828430131077766418e-02 -6.507916003465652466e-02 5.730609223246574402e-02 -7.683578878641128540e-02 1.129186619073152542e-02 -8.122248575091362000e-03 2.578707411885261536e-03 -1.030169986188411713e-02 -4.849931597709655762e-02 6.032226607203483582e-02 5.390552431344985962e-02 5.187671631574630737e-02 -3.782289475202560425e-02 -6.364478915929794312e-02 7.995317131280899048e-02 4.550962895154953003e-02 4.953055828809738159e-02 7.525929063558578491e-02 3.707678988575935364e-02 -1.011076848953962326e-02 3.210166934877634048e-03 7.201134413480758667e-02 -5.362445488572120667e-02 7.989283651113510132e-03 5.208518356084823608e-02 2.942444197833538055e-02 9.498508647084236145e-03 -8.092503249645233154e-02 -8.352332748472690582e-03 3.540441021323204041e-02 -5.359215289354324341e-02 1.268135197460651398e-02 -5.762405321002006531e-02 5.442880094051361084e-02 -2.141666598618030548e-02 6.177294999361038208e-02 7.051907479763031006e-02 -5.811603367328643799e-02 3.965660557150840759e-02 -5.660820007324218750e-02 -6.849982310086488724e-03 9.795956313610076904e-03 4.807998612523078918e-02 -1.129974797368049622e-02 -5.624446086585521698e-03 7.843410223722457886e-02 -3.510925546288490295e-02 5.579793080687522888e-02 6.619261205196380615e-02 -7.762280851602554321e-02 -5.337275564670562744e-02 -2.472296915948390961e-02 1.278938632458448410e-02 -6.548026576638221741e-03 3.176955878734588623e-02 -1.395702641457319260e-02 -2.072463370859622955e-02 -4.813768714666366577e-02 -3.999174386262893677e-02 -4.424164444208145142e-02 -5.709585919976234436e-02 2.397824637591838837e-02 -1.274649053812026978e-02 3.212676569819450378e-02 -3.394542634487152100e-02 -5.878901574760675430e-04 4.539976641535758972e-02 4.792143404483795166e-02 3.788093803450465202e-03 -1.548983529210090637e-02 8.133637905120849609e-02 4.105955362319946289e-02 -9.093569964170455933e-02 7.189030200242996216e-02 -1.515445020049810410e-02 -6.581082940101623535e-02 1.127609517425298691e-02 5.357566475868225098e-02 7.688642293214797974e-02 -3.902271762490272522e-02 -7.666121236979961395e-03 7.350245118141174316e-02 -7.547610905021429062e-03 1.675933599472045898e-02 -2.588330954313278198e-02 -2.016614377498626709e-02 1.246774382889270782e-02 5.926349759101867676e-02 2.424999698996543884e-02 1.201627496629953384e-02 2.362491935491561890e-02 1.548457052558660507e-02 2.392026036977767944e-02 -3.712854906916618347e-02 1.611034199595451355e-02 -2.798116300255060196e-03 6.629572063684463501e-02 4.671029374003410339e-02 -4.835356399416923523e-02 4.892260581254959106e-02 -8.839307725429534912e-02 -1.770562306046485901e-02 5.705185979604721069e-02 4.198147729039192200e-02 7.219888269901275635e-02 5.361164733767509460e-02 -8.945643156766891479e-02 6.180668994784355164e-02 6.528995465487241745e-03 5.922884121537208557e-02 -2.305242046713829041e-02 4.288015514612197876e-02 -4.677511379122734070e-02 -2.841621078550815582e-02 2.328142710030078888e-02 -1.483232062309980392e-02 5.633284896612167358e-02 -6.833628751337528229e-03 -1.524576637893915176e-02 1.181367505341768265e-02 1.357884891331195831e-02 2.237291075289249420e-02 1.270972471684217453e-02 9.348930418491363525e-02 2.804111503064632416e-02
1.970137283205986023e-02 8.523968607187271118e-02 -3.478530049324035645e-02 -5.102444812655448914e-02 -4.800381511449813843e-02 -1.338690752163529396e-03 -1.757713500410318375e-03 -7.168106734752655029e-02 -1.119393110275268555e-02 -1.852360926568508148e-02 -2.654750598594546318e-03 5.103760957717895508e-02 -5.624353885650634766e-03 -6.203576922416687012e-02 1.024868898093700409e-02 2.344754710793495178e-02 7.110846787691116333e-02 3.669029101729393005e-02 5.307696387171745300e-02 -1.741562783718109131e-02 5.404281243681907654e-02 -5.426262691617012024e-02 -2.667331136763095856e-02 -6.574358046054840088e-02 -3.378937765955924988e-02 -3.476390987634658813e-02 2.645979449152946472e-02 -1.849944703280925751e-02 -3.123047202825546265e-02 2.699446864426136017e-02 5.149233620613813400e-03 6.695985049009323120e-02 9.531060233712196350e-03 7.356871850788593292e-03 -2.419855259358882904e-02 2.937602251768112183e-02 -2.782740816473960876e-02 -3.224769607186317444e-02 1.796142198145389557e-02 8.413493633270263672e-02 -4.537890478968620300e-02 -7.826204597949981689e-02 -4.060308856423944235e-04 -1.997531391680240631e-02 4.175058379769325256e-02 -4.289481043815612793e-02 -1.102150697261095047e-02 2.380014397203922272e-02 -3.440541401505470276e-02 -5.451980605721473694e-02 -2.952209487557411194e-02 1.292747166007757187e-02 3.544031083583831787e-02 3.425236046314239502e-02 1.025562547147274017e-02 9.066537022590637207e-02 -8.896872401237487793e-02 6.799890194088220596e-03 -2.126559615135192871e-02 -2.449150569736957550e-02 5.037978664040565491e-02 -6.426466256380081177e-02 3.715991228818893433e-02 -5.504023656249046326e-02 -6.773570924997329712e-02 6.256324797868728638e-02 1.917486079037189484e-02 8.617335557937622070e-02 9.039974771440029144e-03 -2.655282802879810333e-02 -3.669805824756622314e-02 -7.324959337711334229e-02 1.090916618704795837e-02 2.424325793981552124e-02 -3.912694007158279419e-02 4.544488340616226196e-02 1.461919397115707397e-02 -4.356948658823966980e-02 2.686465159058570862e-02 -4.508790373802185059e-02 -5.992468446493148804e-02 7.092612981796264648e-02 -2.366407774388790131e-03 -6.542926281690597534e-02 7.705976068973541260e-02 -6.012507528066635132e-02 -2.370238862931728363e-02 4.224426113069057465e-03 -9.117413312196731567e-03 -6.564357131719589233e-02 6.618683040142059326e-02 -3.973797720391303301e-04 6.591882556676864624e-02 8.554484695196151733e-02 2.803195733577013016e-03 2.382088452577590942e-02 -4.388911277055740356e-02 -4.631603509187698364e-02 4.347514361143112183e-02 7.134224474430084229e-02 3.745611011981964111e-02 6.320721656084060669e-02 1.046075206249952316e-02 -1.474137417972087860e-02 7.076204568147659302e-02 -4.449675232172012329e-02 5.231801187619566917e-04 2.251084893941879272e-02 3.043877892196178436e-02 7.001716643571853638e-02 6.442049145698547363e-02 -5.773761868476867676e-02 3.442524746060371399e-02 5.530666932463645935e-02 9.440962225198745728e-02 5.159337073564529419e-02 -4.963130503892898560e-02 -2.130011469125747681e-02 5.468354746699333191e-02 2.217470481991767883e-02 1.733729988336563110e-02 6.950771808624267578e-02 6.286721676588058472e-02 -5.916352197527885437e-02 2.244508266448974609e-02 -4.301683977246284485e-02 7.418944686651229858e-02 -5.186681076884269714e-02
-5.164008215069770813e-02 3.681068867444992065e-02 -2.601945772767066956e-02 -6.003213301301002502e-02 -4.078675433993339539e-02 8.471747487783432007e-02 8.480026572942733765e-02 -6.670720130205154419e-02 -3.514667740091681480e-03 2.715000137686729431e-02 -2.977510169148445129e-02 -5.723723769187927246e-02 -2.519758231937885284e-02 -7.705446332693099976e-03 -3.322756662964820862e-02 -2.451838739216327667e-02 1.590651646256446838e-02 -4.211122542619705200e-02 8.237598091363906860e-02 -9.225498884916305542e-02 -4.833465814590454102e-02 -7.969740033149719238e-02 -1.428877562284469604e-02 6.847583223134279251e-03 -2.988850884139537811e-02 8.263029903173446655e-02 -6.593167781829833984e-02 1.062313094735145569e-02 -3.058217093348503113e-02 -4.687722772359848022e-02 6.693035364151000977e-02 -4.466093704104423523e-02 -7.852556556463241577e-02 1.409507356584072113e-02 -1.880213990807533264e-02 3.294079797342419624e-03 7.503885775804519653e-02 3.318741545081138611e-02 -6.543251872062683105e-02 7.615195214748382568e-02 5.104141682386398315e-02 1.047893427312374115e-02 -5.927257612347602844e-02 5.775225162506103516e-02 -1.403000392019748688e-02 2.466051280498504639e-02 -6.205596402287483215e-02 5.674115847796201706e-03 -7.297148555517196655e-02 8.255688846111297607e-02 -6.548597663640975952e-02 5.119059234857559204e-02 -7.983681559562683105e-02 -6.189384683966636658e-02 -5.157990008592605591e-02 -4.467907920479774475e-02 -1.198014151304960251e-02 -5.164651945233345032e-02 2.796953730285167694e-02 -5.637064948678016663e-02 7.798042497597634792e-04 2.040328644216060638e-02 -2.091708779335021973e-02 -7.218191772699356079e-02 -7.416155934333801270e-02 4.798901826143264771e-02 -6.936127692461013794e-02 5.021374672651290894e-02 -2.419310621917247772e-02 8.895587921142578125e-02 -6.499493867158889771e-02 -7.999816536903381348e-02 7.587765157222747803e-02 -7.447309046983718872e-02 8.383302390575408936e-02 5.896085128188133240e-02 5.841450020670890808e-02 -3.075031936168670654e-02 -2.246103994548320770e-02 -4.736870527267456055e-02 6.072338670492172241e-02 4.530434682965278625e-02 -3.289802372455596924e-02 3.635657206177711487e-02 2.376622334122657776e-02 2.661555446684360504e-02 -5.485250800848007202e-02 -2.881115674972534180e-02 7.131277769804000854e-02 -5.388635769486427307e-02 3.701056912541389465e-02 5.915315076708793640e-02 1.159213669598102570e-02 -6.136965006589889526e-02 -5.764938145875930786e-02 -3.459240123629570007e-02 -5.113537888973951340e-03 -9.935069829225540161e-03 -4.301704093813896179e-02 3.026561997830867767e-02 -6.557524949312210083e-02 -7.797741144895553589e-02 -5.159809440374374390e-02 -4.623793065547943115e-02 -7.972634583711624146e-02 3.417557477951049805e-02 8.818259835243225098e-02 -7.676813751459121704e-02 -4.628852009773254395e-02 7.540994882583618164e-02 3.271406516432762146e-02 7.643380016088485718e-02 -6.875124573707580566e-02 5.192591995000839233e-02 8.519855886697769165e-02 -6.059057638049125671e-02 -5.095779895782470703e-02 -7.366822659969329834e-02 7.387205213308334351e-02 -5.337947607040405273e-02 -1.884442940354347229e-02 -3.649203106760978699e-02 1.793297939002513885e-03 7.801515050232410431e-03 4.446786642074584961e-02 1.983027905225753784e-02 7.903596386313438416e-03 -1.555615849792957306e-02
-3.908497467637062073e-02 -7.573755830526351929e-02 -7.619545608758926392e-02 8.343870937824249268e-02 -3.356086090207099915e-02 -1.072790473699569702e-02 2.229976840317249298e-02 -2.770777605473995209e-02 -7.004261761903762817e-02 6.613260507583618164e-02 7.378408312797546387e-02 -8.426512777805328369e-02 -4.250208381563425064e-03 1.243628654628992081e-02 7.069981191307306290e-03 1.477400213479995728e-02 -3.653193265199661255e-02 7.680298876948654652e-04 -7.057485729455947876e-02 4.841096326708793640e-02 -6.625453382730484009e-02 8.292012661695480347e-02 1.441899128258228302e-02 8.663964271545410156e-02 -1.670717634260654449e-02 5.018777679651975632e-03 3.344648517668247223e-03 6.680466234683990479e-02 6.859269924461841583e-03 -7.087633758783340454e-02 -7.243712246417999268e-02 1.445051748305559158e-02 1.265322137624025345e-02 -5.427943915128707886e-02 -2.761047799140214920e-03 -7.902924716472625732e-02 -6.229498237371444702e-02 -3.267608582973480225e-02 6.378815323114395142e-02 1.152179948985576630e-02 -1.012414880096912384e-02 7.312668114900588989e-02 7.916153408586978912e-03 3.544506151229143143e-03 -4.162651300430297852e-02 -8.786796778440475464e-02 -2.669908478856086731e-02 8.487479761242866516e-03 -5.941857025027275085e-02 -3.642282262444496155e-02 -7.850904017686843872e-02 5.874884128570556641e-02 -5.573996156454086304e-02 -5.652994848787784576e-03 5.817673355340957642e-02 -6.108869239687919617e-02 -1.066714897751808167e-02 -4.739873483777046204e-02 9.598277509212493896e-02 5.281461402773857117e-02 -3.108558617532253265e-02 -5.397894978523254395e-02 -7.371182739734649658e-02 -8.257608860731124878e-02 -9.464398771524429321e-02 -8.976856246590614319e-03 -2.404847554862499237e-02 7.506334036588668823e-02 -1.045591384172439575e-02 -1.993516832590103149e-02 -3.390149027109146118e-02 -2.321253158152103424e-02 4.322870820760726929e-02 3.671032190322875977e-02 2.653102390468120575e-02 -7.831171900033950806e-02 -4.352541267871856689e-02 8.003768324851989746e-02 5.968887358903884888e-02 -3.349985927343368530e-02 1.518232934176921844e-02 3.710348531603813171e-02 -3.367407480254769325e-03 -1.603507436811923981e-02 -4.044841229915618896e-02 -3.848556056618690491e-02 1.527440827339887619e-02 -7.071365416049957275e-02 -6.926210224628448486e-02 -1.311094500124454498e-02 4.213656485080718994e-02 -5.126991495490074158e-02 1.364952186122536659e-03 -2.012776769697666168e-02 -2.931519038975238800e-02 -5.499684251844882965e-03 6.972607225179672241e-02 7.965285331010818481e-02 -7.337176799774169922e-02 -5.176253244280815125e-02 -5.423689261078834534e-02 6.726978719234466553e-02 -6.259799748659133911e-02 5.589337274432182312e-02 -6.492680311203002930e-02 -1.634209603071212769e-02 -1.721373759210109711e-02 4.525816068053245544e-02 6.116518750786781311e-02 -2.739495225250720978e-02 -3.041121177375316620e-02 -8.076786994934082031e-02 -3.691635653376579285e-02 -8.838247507810592651e-02 8.406541496515274048e-02 7.507417351007461548e-02 7.012670487165451050e-02 3.723002597689628601e-02 -6.965741049498319626e-03 6.474411487579345703e-02 -2.056194096803665161e-02 -6.565620005130767822e-02 -4.866302013397216797e-02 3.806346794590353966e-03 1.594748347997665405e-02 -5.173493176698684692e-02 8.066894859075546265e-02 7.015952467918395996e-02
2.339176647365093231e-02 6.158239394426345825e-02 3.393816947937011719e-02 6.604103744029998779e-02 -8.595308661460876465e-02 -8.256613463163375854e-02 -8.468871563673019409e-02 -1.998191140592098236e-02 5.716947466135025024e-02 -2.664129808545112610e-02 -3.028468787670135498e-02 2.107549272477626801e-02 -8.621890842914581299e-02 7.647272944450378418e-02 1.616048254072666168e-02 6.496826559305191040e-02 -7.094801403582096100e-04 1.516033709049224854e-02 1.551087573170661926e-02 4.516714811325073242e-02 -4.961277171969413757e-02 -3.778992220759391785e-02 7.069074362516403198e-02 8.149015903472900391e-02 -5.998496338725090027e-02 -8.095873892307281494e-02 -2.932098880410194397e-02 4.478415474295616150e-02 7.392825931310653687e-02 -2.249727211892604828e-02 -8.183702826499938965e-02 2.185482345521450043e-02 5.705822259187698364e-02 -5.460665374994277954e-02 8.101828396320343018e-03 2.014302648603916168e-02 4.505297914147377014e-02 2.981382980942726135e-02 -1.777416840195655823e-02 1.760043948888778687e-02 -8.619057387113571167e-02 5.383692309260368347e-02 -7.856246829032897949e-02 7.015341520309448242e-02 -4.392018541693687439e-02 -6.128437072038650513e-02 4.640243574976921082e-02 2.986771054565906525e-02 -7.679595053195953369e-02 -6.136801838874816895e-02 3.795767202973365784e-02 4.281661007553339005e-03 5.551102105528116226e-03 -3.947175666689872742e-02 5.819578096270561218e-02 -6.358435750007629395e-02 -5.429971590638160706e-02 -1.116148754954338074e-02 3.007802180945873260e-02 -6.135210767388343811e-02 -3.735501691699028015e-02 -8.928812295198440552e-02 7.573863957077264786e-03 2.229639515280723572e-02 -7.614083122462034225e-03 -4.589788150042295456e-03 6.303322315216064453e-02 2.360300347208976746e-02 5.085391551256179810e-02 1.305393502116203308e-02 1.955710165202617645e-02 -8.896011859178543091e-02 2.622278174385428429e-03 5.989244580268859863e-02 6.121143326163291931e-02 -1.377524994313716888e-02 -3.580682352185249329e-02 7.843200117349624634e-02 2.450130996294319630e-04 -7.454813271760940552e-02 7.641503959894180298e-02 3.036170825362205505e-02 -3.481107950210571289e-02 -2.954764105379581451e-02 -2.274489030241966248e-02 -7.170458883047103882e-02 -4.393834620714187622e-02 -5.246398225426673889e-02 -4.845056682825088501e-02 2.935520559549331665e-02 -8.396297693252563477e-03 4.132710024714469910e-02 6.191810593008995056e-03 -3.273359313607215881e-02 4.995097219944000244e-02 -3.291246667504310608e-02 -1.260665012523531914e-03 5.664329975843429565e-02 -6.878596544265747070e-02 9.097031317651271820e-03 -3.022873075678944588e-03 -6.741233915090560913e-02 3.199663758277893066e-02 -5.161155946552753448e-03 6.236324086785316467e-03 -2.507920749485492706e-02 2.031339146196842194e-02 6.855130940675735474e-02 -6.105538457632064819e-02 -3.931539133191108704e-03 6.138452142477035522e-02 -5.330476537346839905e-02 -5.314684286713600159e-02 6.386046856641769409e-02 4.464137367904186249e-03 -2.499370090663433075e-02 -8.446657098829746246e-03 -6.386438757181167603e-02 1.727536879479885101e-02 -2.102551609277725220e-02 -7.710750401020050049e-02 5.530942976474761963e-02 -6.047710776329040527e-02 5.918476730585098267e-02 -8.549190312623977661e-02 -7.674964517354965210e-02 -3.467861562967300415e-02 -2.507121115922927856e-02
-4.210968315601348877e-02 3.074780292809009552e-02 -7.457382977008819580e-02 8.791091851890087128e-03 -7.015239447355270386e-02 -4.024876654148101807e-02 -7.855251431465148926e-02 2.796368859708309174e-02 -1.185575686395168304e-02 3.332819789648056030e-02 9.241600334644317627e-02 3.532870113849639893e-02 1.322387484833598137e-03 4.199945181608200073e-02 -6.896888464689254761e-02 6.336560845375061035e-02 1.745984330773353577e-02 -4.499858990311622620e-02 -3.536986559629440308e-02 3.924491629004478455e-02 -3.855891525745391846e-02 -3.466683253645896912e-02 5.389952287077903748e-02 -8.683671243488788605e-03 7.140181213617324829e-02 6.613975763320922852e-02 -1.157648209482431412e-02 1.659323088824748993e-02 1.354303490370512009e-02 2.960110269486904144e-02 1.905446872115135193e-02 -1.205468829721212387e-02 -6.231857836246490479e-02 3.542852401733398438e-02 1.039426773786544800e-02 1.562644913792610168e-02 1.592586189508438110e-02 -7.909899204969406128e-02 -5.473710596561431885e-02 4.156293720006942749e-02 -9.214957058429718018e-02 -2.158241905272006989e-02 -7.455346733331680298e-02 2.186280302703380585e-02 -7.133516669273376465e-02 -7.130999118089675903e-02 7.634764164686203003e-02 6.540109962224960327e-02 -1.809344068169593811e-02 1.823355816304683685e-02 -5.075231194496154785e-02 8.889928460121154785e-03 4.737655073404312134e-02 -2.784695662558078766e-02 3.804485872387886047e-02 -3.798273578286170959e-02 5.529119819402694702e-02 -6.931614130735397339e-02 1.502874679863452911e-02 5.858211591839790344e-02 -4.788596183061599731e-02 -3.894022852182388306e-02 6.144043803215026855e-02 -5.183525756001472473e-02 -3.973315283656120300e-02 -9.262879937887191772e-02 -6.310757994651794434e-02 3.397866711020469666e-02 6.752764433622360229e-02 -5.012223497033119202e-03 -5.224433261901140213e-03 -8.530636131763458252e-02 4.982307925820350647e-02 -2.610012888908386230e-03 -5.682367086410522461e-02 5.084943398833274841e-02 -2.138687483966350555e-02 -4.066028632223606110e-03 -2.945024706423282623e-02 -1.636148057878017426e-02 -5.473255366086959839e-02 -4.127555713057518005e-02 3.336807712912559509e-02 6.862664222717285156e-02 2.080203406512737274e-02 -2.002859674394130707e-02 1.677011325955390930e-02 7.162936031818389893e-02 -2.092976868152618408e-02 -8.047846704721450806e-02 -4.540730267763137817e-02 1.791177131235599518e-02 1.502376236021518707e-02 -5.875961855053901672e-02 -2.233622595667839050e-02 1.356950728222727776e-03 2.515531331300735474e-02 -5.487198010087013245e-02 1.753349974751472473e-02 5.843088403344154358e-02 -1.245826575905084610e-02 5.835776403546333313e-02 4.161828663200139999e-03 7.200383394956588745e-02 -7.843278348445892334e-02 7.825273275375366211e-02 -8.539055287837982178e-02 1.468065474182367325e-02 -1.851955801248550415e-02 2.583689428865909576e-02 4.664276540279388428e-02 1.596327684819698334e-02 -5.838257446885108948e-02 5.939358845353126526e-02 -5.199821665883064270e-02 1.453894097357988358e-02 4.674711823463439941e-02 1.417613588273525238e-02 -3.993451967835426331e-02 5.460955202579498291e-03 4.925381764769554138e-02 -7.946768403053283691e-02 -7.677406538277864456e-03 -6.952650845050811768e-02 -6.977085024118423462e-02 -7.731003314256668091e-02 5.944053456187248230e-02 -3.652916522696614265e-03
2.674736970220692456e-05 6.565048545598983765e-02 1.477982569485902786e-02 6.314456462860107422e-02 -7.104212045669555664e-02 -1.716951653361320496e-02 1.142820995301008224e-02 -4.180205613374710083e-02 1.191763114184141159e-02 -5.277135409414768219e-03 -1.184483058750629425e-02 -4.609225317835807800e-02 -1.533496566116809845e-02 -5.338041484355926514e-02 7.960941642522811890e-02 -8.695326000452041626e-02 -8.955883234739303589e-02 -3.438895568251609802e-02 -3.563446924090385437e-03 -8.591695129871368408e-02 7.474856823682785034e-02 5.009011924266815186e-02 4.539075866341590881e-02 9.518824517726898193e-03 7.636781781911849976e-02 -5.386744067072868347e-02 7.311036437749862671e-02 7.353557646274566650e-02 -3.847640007734298706e-02 -7.008002698421478271e-02 5.236345902085304260e-02 3.763652173802256584e-03 -7.725561410188674927e-02 5.492476746439933777e-02 7.480675727128982544e-02 5.532418563961982727e-02 -5.446282774209976196e-02 -7.918655872344970703e-02 8.078376948833465576e-02 5.598029121756553650e-02 4.860692098736763000e-02 5.742657557129859924e-02 3.874951507896184921e-03 3.745145350694656372e-02 7.091974839568138123e-03 -1.193737890571355820e-02 1.602884754538536072e-02 1.975854625925421715e-03 -1.452437369152903557e-03 5.849930457770824432e-03 -6.413547694683074951e-02 -7.759729772806167603e-02 4.823083430528640747e-02 3.293384984135627747e-02 -5.053731054067611694e-02 -8.747676387429237366e-03 5.179750919342041016e-02 -6.090578064322471619e-02 5.631872639060020447e-02 -1.993437856435775757e-02 2.258349396288394928e-02 -7.987923175096511841e-02 -5.764957144856452942e-02 5.078700557351112366e-02 6.786280125379562378e-02 -2.945109084248542786e-02 -4.568353667855262756e-02 2.653354406356811523e-02 1.192447543144226074e-02 4.131654277443885803e-03 -2.420784346759319305e-02 -8.020876348018646240e-02 -9.371194243431091309e-02 9.022451005876064301e-03 2.014099806547164917e-02 5.843618512153625488e-02 9.299395605921745300e-03 -4.918310418725013733e-02 -4.260918125510215759e-02 7.616548985242843628e-02 5.422493442893028259e-02 6.371654570102691650e-02 1.697764918208122253e-02 2.257961221039295197e-02 3.652733284980058670e-03 -6.563194841146469116e-02 -2.606523782014846802e-02 -8.745674043893814087e-02 -2.535378932952880859e-02 -4.586166143417358398e-02 3.627289086580276489e-02 -6.992229819297790527e-02 -7.208488881587982178e-02 3.792014718055725098e-02 -2.985757403075695038e-02 1.643165363930165768e-03 -9.494204074144363403e-02 3.019863925874233246e-02 3.633819147944450378e-02 -2.159103937447071075e-02 1.841382868587970734e-02 -1.411864301189780235e-03 -4.069006443023681641e-02 -7.485678046941757202e-02 -6.528396159410476685e-02 7.981702685356140137e-02 3.003287129104137421e-02 -6.229697167873382568e-02 -3.173483908176422119e-02 -9.295944869518280029e-02 -7.162567228078842163e-03 4.304017126560211182e-02 -1.369984541088342667e-02 -8.567135781049728394e-02 -2.809137292206287384e-02 -3.373768180608749390e-02 -2.596732974052429199e-02 2.508559264242649078e-02 9.888995438814163208e-03 6.182951107621192932e-02 2.791977301239967346e-02 1.565531641244888306e-02 -5.037938803434371948e-02 4.967005178332328796e-02 5.813907831907272339e-02 -8.762632310390472412e-02 -4.555950686335563660e-02 6.802374124526977539e-02
3.236874006688594818e-03 -7.092929631471633911e-02 -2.090246789157390594e-02 2.158269286155700684e-03 7.074702531099319458e-02 -1.496943552047014236e-02 6.393180042505264282e-02 -7.779952883720397949e-02 4.059315472841262817e-02 7.572208344936370850e-02 -7.610680162906646729e-02 2.064483799040317535e-02 5.173715204000473022e-02 7.363801449537277222e-02 6.414523720741271973e-02 4.619929566979408264e-02 1.082085631787776947e-02 1.923843054100871086e-03 7.635332643985748291e-02 4.605405405163764954e-02 -6.487952917814254761e-02 3.405666723847389221e-02 -4.475829005241394043e-02 -5.423811078071594238e-02 -3.891905397176742554e-02 -4.236743226647377014e-02 2.640176564455032349e-02 4.133090749382972717e-02 -5.647348240017890930e-02 5.887277796864509583e-02 5.449412763118743896e-02 -1.530299056321382523e-02 -5.482129752635955811e-02 -4.144633561372756958e-02 -1.685980148613452911e-02 6.046580150723457336e-02 4.849488846957683563e-03 4.551829770207405090e-02 -3.262434899806976318e-02 -8.143395930528640747e-02 3.473839536309242249e-02 -8.689936250448226929e-02 7.365954667329788208e-02 7.753238081932067871e-02 -7.512022554874420166e-02 5.851032212376594543e-02 1.039675064384937286e-02 3.907052427530288696e-02 -1.579813659191131592e-02 -5.522673577070236206e-02 -8.475270122289657593e-02 5.791701003909111023e-02 -3.229458630084991455e-02 6.290958821773529053e-02 6.444596499204635620e-02 8.235605061054229736e-02 6.142158806324005127e-02 1.443490944802761078e-02 6.778334081172943115e-02 -5.160842463374137878e-02 -8.921088278293609619e-02 5.839134752750396729e-02 -4.567366559058427811e-03 -4.220648109912872314e-02 -8.888410031795501709e-02 -7.286626100540161133e-02 5.740399658679962158e-02 9.286344051361083984e-02 -7.674836367368698120e-02 -7.755570113658905029e-02 -9.803420305252075195e-02 -2.065024524927139282e-02 2.507227705791592598e-03 7.000418007373809814e-02 -1.228035241365432739e-02 -4.934727214276790619e-03 -1.726496778428554535e-02 6.397463381290435791e-02 -3.364518657326698303e-02 -4.602478444576263428e-02 8.603690075688064098e-04 -4.909044876694679260e-02 1.122154481709003448e-02 9.346489096060395241e-04 1.280645281076431274e-02 -4.601589590311050415e-02 5.998288840055465698e-02 -1.898085512220859528e-02 -8.210451900959014893e-02 2.658873982727527618e-02 -1.882412098348140717e-02 -8.610273897647857666e-02 -2.955937944352626801e-02 -6.673256307840347290e-02 -6.139760464429855347e-02 1.353850401937961578e-02 -7.870049774646759033e-02 1.362557522952556610e-03 4.609367623925209045e-02 -6.805615872144699097e-02 -6.736139953136444092e-02 -4.834502562880516052e-02 -5.353632941842079163e-02 5.524532124400138855e-02 -1.848486624658107758e-02 -4.388012737035751343e-02 -1.707209087908267975e-02 6.146328151226043701e-02 -6.391213834285736084e-02 -4.046275839209556580e-02 -2.025465108454227448e-02 -8.169451355934143066e-02 5.889361724257469177e-03 -3.324926644563674927e-02 1.426308508962392807e-02 -1.626658625900745392e-02 3.108335100114345551e-02 4.867509752511978149e-02 5.876722745597362518e-03 -3.805787535384297371e-03 9.523108601570129395e-03 -4.458087310194969177e-02 6.958369910717010498e-02 -4.882772266864776611e-02 1.652458310127258301e-02 -8.470889925956726074e-02 6.662476062774658203e-02 5.618924647569656372e-02
-3.213118761777877808e-03 -7.960887253284454346e-02 3.035901114344596863e-02 -8.448201231658458710e-03 -2.005042694509029388e-02 2.142613194882869720e-02 -2.825892157852649689e-02 -6.929771602153778076e-02 -1.423260848969221115e-02 -6.975039094686508179e-02 -6.411826610565185547e-02 -4.330971464514732361e-02 4.111242666840553284e-02 -9.649057872593402863e-03 4.459030553698539734e-02 -6.279636640101671219e-03 4.750984907150268555e-02 1.602088916115462780e-03 8.357065729796886444e-03 4.272151365876197815e-02 -1.466182991862297058e-02 -3.289148584008216858e-02 6.504297256469726562e-02 5.934352055191993713e-02 -3.212315961718559265e-02 -9.729000739753246307e-03 -3.341518342494964600e-02 8.285343647003173828e-03 9.451451897621154785e-02 -1.862975023686885834e-02 -4.448823630809783936e-02 6.187899783253669739e-02 3.218930214643478394e-02 5.422129482030868530e-02 -3.025132603943347931e-02 -1.569015905261039734e-02 -7.219128776341676712e-03 -3.721228986978530884e-02 -3.685441985726356506e-02 -1.502924319356679916e-02 5.841497704386711121e-02 -6.839846074581146240e-02 2.261106669902801514e-02 -8.085652440786361694e-02 -4.356177896261215210e-02 -3.799598664045333862e-02 -6.397894024848937988e-02 4.374210163950920105e-02 3.184355795383453369e-02 -4.111619200557470322e-03 8.365385979413986206e-02 -4.321581125259399414e-02 -9.839772433042526245e-02 3.055852837860584259e-02 -8.401783555746078491e-02 -1.142854057252407074e-02 4.056779295206069946e-02 4.537761211395263672e-02 6.888130307197570801e-02 2.948992699384689331e-02 -8.505515009164810181e-02 3.127211704850196838e-02 -1.498304307460784912e-02 8.004060387611389160e-02 -2.022662572562694550e-02 -9.304860234260559082e-02 1.011674478650093079e-01 -5.641807243227958679e-02 -5.817191302776336670e-02 -6.921003013849258423e-02 1.784752123057842255e-02 -6.793610006570816040e-02 8.369047939777374268e-02 1.053792703896760941e-02 5.054903030395507812e-02 4.957350715994834900e-02 -5.317005515098571777e-02 -6.662514805793762207e-02 3.502968465909361839e-04 -7.856528460979461670e-02 6.692244857549667358e-02 4.170756042003631592e-02 -8.681154996156692505e-02 -4.047272726893424988e-02 2.615655213594436646e-02 -5.616990476846694946e-02 -7.064545154571533203e-02 -6.978461891412734985e-02 1.711298152804374695e-02 1.980965957045555115e-02 -7.691918406635522842e-03 6.320940703153610229e-02 6.523941457271575928e-02 1.122427824884653091e-02 -9.753286093473434448e-02 -8.210746943950653076e-02 1.188452169299125671e-02 -1.327141840010881424e-02 3.944380208849906921e-02 -4.178135842084884644e-02 8.929519681259989738e-04 -3.571349382400512695e-02 1.265409961342811584e-02 9.568919427692890167e-03 3.274529054760932922e-02 3.213363885879516602e-02 7.064704596996307373e-02 -1.385517884045839310e-02 -3.990782052278518677e-02 -9.548411518335342407e-02 -4.468762129545211792e-02 -5.220434069633483887e-02 -1.619719341397285461e-02 -4.046078026294708252e-02 -7.273044437170028687e-02 -9.850687533617019653e-02 5.402998533099889755e-03 3.394919261336326599e-02 6.415043771266937256e-02 -2.929088473320007324e-02 -6.265169382095336914e-02 -3.198273479938507080e-02 -7.765571773052215576e-02 6.695852428674697876e-02 3.778102993965148926e-02 5.898926407098770142e-02 2.901431731879711151e-02 1.556529756635427475e-02
2.129913307726383209e-02 5.707324016839265823e-03 8.267006278038024902e-02 -2.766158059239387512e-02 3.783040493726730347e-02 -6.654431670904159546e-02 -6.564460694789886475e-02 5.764982104301452637e-02 2.538681030273437500e-02 4.967785999178886414e-02 5.814231559634208679e-02 -2.769875898957252502e-02 -3.820120543241500854e-02 3.158391639590263367e-02 -7.619517296552658081e-02 -2.152190543711185455e-02 -1.239184848964214325e-02 -2.587614394724369049e-02 2.446549758315086365e-02 -7.709752768278121948e-02 -5.354027822613716125e-02 7.575297355651855469e-02 -1.541591063141822815e-02 6.034506484866142273e-02 3.664686903357505798e-02 9.211703389883041382e-02 -1.815076917409896851e-02 -6.407868117094039917e-02 -2.524375729262828827e-02 7.166494429111480713e-02 4.750305414199829102e-02 -2.163101546466350555e-02 -1.728446781635284424e-02 -4.837173968553543091e-02 -5.502415448427200317e-02 2.682815678417682648e-02 5.853389576077461243e-02 6.860002130270004272e-02 5.549600720405578613e-02 1.514261681586503983e-02 7.332657277584075928e-02 4.314315691590309143e-02 -1.363046653568744659e-02 -6.291153281927108765e-02 5.453386902809143066e-02 -8.789414912462234497e-02 -8.609133958816528320e-02 -4.492232576012611389e-02 -1.037897635251283646e-02 -7.210352271795272827e-02 6.172651052474975586e-02 2.650166675448417664e-02 1.422752812504768372e-02 -3.863052278757095337e-02 -3.752391412854194641e-02 6.150783598423004150e-02 5.119481682777404785e-02 7.700548321008682251e-02 7.659747265279293060e-03 3.742938861250877380e-02 -1.143487822264432907e-02 -4.339309036731719971e-02 3.451674059033393860e-02 8.677974343299865723e-02 -2.737429738044738770e-02 6.617387384176254272e-02 -3.175379335880279541e-02 -4.061943665146827698e-02 -4.061563685536384583e-02 5.210075993090867996e-03 -3.988483920693397522e-02 6.140149664133787155e-03 8.561390638351440430e-02 -3.667159378528594971e-02 -6.890158355236053467e-02 3.018693067133426666e-02 6.182115525007247925e-02 -6.490132957696914673e-02 5.710028856992721558e-02 -6.809810549020767212e-02 -4.371982067823410034e-02 1.005973573774099350e-02 6.238508969545364380e-02 8.096387982368469238e-02 7.470393180847167969e-02 8.632386475801467896e-02 -8.829187601804733276e-02 -2.197283320128917694e-02 -2.762301266193389893e-02 -1.541172247380018234e-02 -5.318509414792060852e-02 -8.780689537525177002e-02 4.912235587835311890e-02 -7.798381149768829346e-02 -5.899398028850555420e-02 -4.537898302078247070e-02 8.129579573869705200e-02 5.498290061950683594e-02 -8.703479915857315063e-02 -4.195464029908180237e-02 5.865736864507198334e-03 -1.919543370604515076e-02 2.051664516329765320e-02 -3.333804756402969360e-02 2.812928892672061920e-02 -2.143695764243602753e-02 -8.062333613634109497e-02 -7.257189601659774780e-02 2.621563337743282318e-02 9.640210121870040894e-02 6.343190371990203857e-02 -6.782124936580657959e-02 -2.357464283704757690e-02 5.064306408166885376e-02 -5.008460022509098053e-03 -1.212299568578600883e-03 -4.361827298998832703e-02 -1.238563470542430878e-02 1.553641445934772491e-02 -8.293251693248748779e-02 -9.640320204198360443e-03 6.887889653444290161e-02 4.288448765873908997e-02 -4.686354100704193115e-02 -5.585413798689842224e-02 2.017973735928535461e-02 1.970121078193187714e-02 8.498782292008399963e-03
6.694898009300231934e-02 -2.276658080518245697e-02 2.826650626957416534e-02 6.301787216216325760e-03 6.608410924673080444e-02 -4.539699852466583252e-02 4.342309013009071350e-02 -5.555156245827674866e-02 2.070366404950618744e-02 -5.912302434444427490e-02 4.528311267495155334e-02 -9.236327558755874634e-02 4.096649959683418274e-02 -4.783071205019950867e-02 4.263487830758094788e-02 9.639655239880084991e-03 1.172870118170976639e-02 -7.878486067056655884e-02 6.358958315104246140e-03 3.133328631520271301e-02 2.798679843544960022e-02 -7.096485793590545654e-02 2.326073870062828064e-02 3.705888241529464722e-02 -7.875297218561172485e-02 5.426185950636863708e-02 -8.019601553678512573e-02 -6.508107483386993408e-02 8.854320645332336426e-02 3.551537916064262390e-02 1.883643097244203091e-03 2.350226230919361115e-02 -3.488607332110404968e-02 4.334795102477073669e-02 -4.831270873546600342e-02 -2.323397807776927948e-02 2.271608263254165649e-02 6.521473638713359833e-03 -2.989205159246921539e-02 -7.225960493087768555e-02 -7.956588268280029297e-02 -6.560305505990982056e-02 -3.147904947400093079e-02 1.829219050705432892e-02 -4.156679660081863403e-02 6.285577267408370972e-02 -7.263918220996856689e-02 4.537418484687805176e-02 -1.196187175810337067e-02 3.963990509510040283e-02 5.384951457381248474e-02 2.203632146120071411e-02 6.853369623422622681e-02 1.537831872701644897e-02 -2.389899082481861115e-02 9.521757066249847412e-02 5.084509029984474182e-02 1.468435302376747131e-02 -8.938306942582130432e-03 4.424455761909484863e-02 -8.380052447319030762e-02 -6.758756190538406372e-02 1.753075607120990753e-02 -7.580269128084182739e-02 -5.569811165332794189e-02 4.506617318838834763e-03 6.994110345840454102e-02 8.002573251724243164e-02 3.121885471045970917e-02 -4.647125676274299622e-02 3.164582327008247375e-02 3.959181159734725952e-02 6.678751856088638306e-02 6.339757144451141357e-02 -6.765697151422500610e-02 6.858368963003158569e-02 5.847261846065521240e-02 1.242409832775592804e-02 -4.739131405949592590e-02 -1.773533783853054047e-02 -5.005617439746856689e-02 8.728713542222976685e-02 1.140978373587131500e-02 8.039967715740203857e-02 -2.893782034516334534e-02 -6.312854588031768799e-03 -6.449946016073226929e-02 5.331300944089889526e-02 4.203079640865325928e-02 8.169353753328323364e-02 -4.804168641567230225e-02 -4.639224335551261902e-02 2.990057505667209625e-02 -5.634705070406198502e-03 -4.573657643049955368e-04 5.568545684218406677e-02 4.501580074429512024e-02 -3.118750825524330139e-02 -5.375780910253524780e-02 -1.533233467489480972e-02 5.660158395767211914e-02 -2.419012784957885742e-02 -4.943580552935600281e-02 -6.263808906078338623e-02 6.765908002853393555e-02 5.606985092163085938e-02 -6.980866193771362305e-02 -5.068645253777503967e-02 -5.081418156623840332e-02 8.829856663942337036e-02 1.791803166270256042e-02 1.879430375993251801e-02 -6.586829572916030884e-02 -5.684344097971916199e-02 3.465499356389045715e-02 -3.024698793888092041e-02 6.166081875562667847e-02 4.213571548461914062e-02 -5.009069293737411499e-02 -3.949895873665809631e-02 -4.163600504398345947e-02 6.230374798178672791e-02 -1.843337900936603546e-02 -6.417562719434499741e-03 -4.028659313917160034e-02 3.620836883783340454e-02 -2.630069106817245483e-02 -6.608983129262924194e-02
1.931449212133884430e-02 3.349756076931953430e-02 3.314691036939620972e-02 -1.905040070414543152e-02 -6.574542075395584106e-02 -2.922584675252437592e-02 -4.002149403095245361e-02 1.261407742276787758e-04 -6.969487294554710388e-04 -2.417838945984840393e-02 4.279288277029991150e-02 5.792729184031486511e-02 9.105745702981948853e-02 -5.416234955191612244e-02 4.743054136633872986e-02 1.580687239766120911e-03 -5.658602342009544373e-02 6.293895654380321503e-03 7.881153374910354614e-02 3.405322507023811340e-02 6.691917032003402710e-02 5.150384828448295593e-02 4.271000623703002930e-02 -2.010671608150005341e-02 -4.476226121187210083e-02 -5.806296318769454956e-02 8.435652405023574829e-02 4.291244596242904663e-02 -1.504669082351028919e-03 8.466205745935440063e-02 6.540531665086746216e-02 -1.206143666058778763e-02 2.423127181828022003e-02 -3.998563811182975769e-02 3.625110909342765808e-02 -6.678900867700576782e-02 2.114992029964923859e-02 -8.272375166416168213e-02 -9.141359478235244751e-02 -4.296802356839179993e-02 7.781898975372314453e-02 -7.590636610984802246e-02 2.742956578731536865e-02 2.580818533897399902e-02 3.427066281437873840e-02 4.319053888320922852e-02 -4.803830385208129883e-02 2.060986496508121490e-02 -7.344304770231246948e-02 8.027742058038711548e-02 4.116151854395866394e-02 -6.320007890462875366e-02 3.074025548994541168e-02 -4.079388082027435303e-02 5.659500509500503540e-02 7.210972160100936890e-02 -4.101460799574851990e-02 1.611992530524730682e-02 -1.702157407999038696e-02 -3.412741795182228088e-02 8.745387196540832520e-03 7.770281285047531128e-02 -6.163302809000015259e-02 -2.403153106570243835e-03 6.396662443876266479e-02 6.328698992729187012e-02 -7.317845523357391357e-02 -2.527607977390289307e-02 -2.788370475172996521e-02 6.365187466144561768e-02 -2.068661712110042572e-02 -5.813540518283843994e-02 8.559229969978332520e-02 -2.115300484001636505e-02 -3.396819904446601868e-02 6.601680815219879150e-02 -5.849741399288177490e-02 4.062144085764884949e-03 6.115210708230733871e-04 -8.378107100725173950e-02 -4.161782562732696533e-02 2.322200313210487366e-02 -2.368183247745037079e-02 -6.322140991687774658e-02 -3.570456430315971375e-02 -3.089650161564350128e-02 -6.362292915582656860e-02 1.972334925085306168e-03 1.012434214353561401e-01 -6.580298393964767456e-02 -5.660130083560943604e-02 2.855910174548625946e-02 3.673667460680007935e-02 6.990231573581695557e-02 9.122697636485099792e-03 -5.313099920749664307e-02 5.899023637175559998e-02 -8.780131489038467407e-02 3.356707841157913208e-02 -7.528960704803466797e-02 -2.790497429668903351e-02 3.476950153708457947e-02 6.205319240689277649e-02 -6.808276474475860596e-02 -8.324556797742843628e-02 -1.004973705857992172e-02 8.081839233636856079e-02 1.234262832440435886e-03 -2.322586439549922943e-02 -1.944895088672637939e-02 6.682419031858444214e-02 -7.878503948450088501e-02 -3.241254016757011414e-02 3.772491216659545898e-02 -3.577857837080955505e-02 3.877699002623558044e-02 -2.549602836370468140e-02 5.194474384188652039e-02 1.697429269552230835e-02 3.392692282795906067e-02 -5.404244177043437958e-03 -6.857071816921234131e-02 -4.357015341520309448e-02 -6.916443258523941040e-02 -1.122324727475643158e-02 -2.780584618449211121e-02 7.905480265617370605e-02 -1.618515141308307648e-02
